{"MS3-11Retro": {"upper_weights": [0.12916358897277316, 0.1329450817431322, 0.27876994148538514, 0.1817042846042946, 0.21326292243661762, 0.191778876787546, 0.1618669348211084, 0.16263476944727503], "lower_weights": [-0.15577116967840965, -0.23817834814612487, 0.11351792486558263, -0.2452606126269108, 0.1300305553878597, -0.1595740171922076, 0.02012631555080548, -0.05650336695243117], "leading_edge_weight": 0.44526447050701684, "TE_thickness": 0.005615869549143568}, "MS3-13Retro": {"upper_weights": [0.15101342952261687, 0.15822628164899963, 0.30602944745578503, 0.21254925594691293, 0.23216129717855571, 0.22024136922727083, 0.17946629391411825, 0.18349475771178914], "lower_weights": [-0.18036785233059002, -0.273286618510483, 0.11375766505992789, -0.283867623261404, 0.13531442587471784, -0.18836459482186818, 0.014695249714849737, -0.07141492264061211], "leading_edge_weight": 0.47704741918561444, "TE_thickness": 0.006529183831185461}, "MS3-14Retro": {"upper_weights": [0.16603072163267577, 0.17690714454358955, 0.31665601841005503, 0.2341422950259352, 0.23808005241281416, 0.23849071883456022, 0.1875908197687356, 0.19530918061344482], "lower_weights": [-0.19645274494494477, -0.2950527164595157, 0.10631040449031301, -0.3088144226820136, 0.13213989073998214, -0.20845137306396658, 0.007377850513013994, -0.0835331561931219], "leading_edge_weight": 0.48133849268039586, "TE_thickness": 0.007140950445369145}, "MS3-15Retro": {"upper_weights": [0.17931478122594696, 0.19538136683742371, 0.31411448991056523, 0.25365743337975155, 0.23310228316534026, 0.25245386905310124, 0.1890933824376197, 0.20181812886899417], "lower_weights": [-0.20930586661768621, -0.31055530814720544, 0.08858593444190102, -0.32844210435519333, 0.11962429275014164, -0.22687796400571983, -0.003937647705452136, -0.0972745649804081], "leading_edge_weight": 0.45895175117667, "TE_thickness": 0.00765209261169516}, "ag34": {"upper_weights": [0.13457157462873898, 0.15772277562250683, 0.1855903397903883, 0.2440331363862094, 0.043390453881906266, 0.30295212798116194, 0.07711982302227952, 0.17570421711008619], "lower_weights": [-0.12192267200329222, -0.13035464414645848, 0.004303022930382025, -0.09440872234239533, 0.004099536129669863, -0.06792361054003157, -0.014329082419557047, -0.041887022143067665], "leading_edge_weight": 0.20469654222122663, "TE_thickness": 0.0018908527404509713}, "ag35": {"upper_weights": [0.12114801302059829, 0.13896934932632982, 0.1731409089791901, 0.24097120228614188, 0.02902074635525464, 0.2857925498266563, 0.07754783316722129, 0.16432755456296033], "lower_weights": [-0.12286283675066387, -0.132098687438589, 0.0122230545795407, -0.0931330379655499, 0.006320525852138351, -0.06336254902397016, -0.01394926885644978, -0.03784576407683199], "leading_edge_weight": 0.23947611127608073, "TE_thickness": 0.002214783855930718}, "ah79100a": {"upper_weights": [0.13568667287166047, 0.18237028488571747, 0.20595783053362682, 0.2434156330167256, 0.16823765168216898, 0.2773269039648153, 0.19311159524768434, 0.22237919798528388], "lower_weights": [-0.12126323776888168, -0.11457881504565633, -0.015727649158979874, -0.1084428716792485, 0.08964387141564549, -0.02217889406263057, 0.11553975503651416, 0.09109878885322849], "leading_edge_weight": 0.14697674468600028, "TE_thickness": 9.103336675356536e-05}, "ah79100b": {"upper_weights": [0.15047401798521898, 0.22543085198313972, 0.3016196636373608, 0.2911494232423244, 0.2813194929862664, 0.41142800392545287, 0.1982014849894329, 0.4641308469513132], "lower_weights": [-0.11246502057450257, -0.009616341956945433, -0.011681279100768103, 0.06281156949272244, 0.02697520699171748, 0.18613270937737142, 0.1016116307089634, 0.34248787645637857], "leading_edge_weight": 0.20083989958989207, "TE_thickness": 0.00012175326406394642}, "ah79100c": {"upper_weights": [0.1457544914854605, 0.21942566744807404, 0.3221632582684269, 0.23044720926307738, 0.4237656117764039, 0.2936239903484661, 0.37142944084536755, 0.5126327134972394], "lower_weights": [-0.12811814022513218, -0.05353371462615532, 0.04456575259524557, 0.06571368910874495, 0.027770063029590997, 0.15061270706315738, 0.07316088949981635, 0.2687045635366603], "leading_edge_weight": 0.27090055363488263, "TE_thickness": 0.0}, "ah80140": {"upper_weights": [0.21623433374319004, 0.3283614253945916, 0.19313959098671346, 0.5401545185450028, 0.027590064470274768, 0.29680706224744735, 0.08291876967632225, 0.16474030638498213], "lower_weights": [-0.16165000642327385, -0.004438442714494437, -0.1848485193741944, 0.09165165269212336, -0.1986903485422268, 0.0313991807422121, -0.08299060160789963, -0.005710268832413133], "leading_edge_weight": 0.04246368009434664, "TE_thickness": 0.001359177801811227}, "ah83150q": {"upper_weights": [0.17714726575001163, 0.13513057680461027, 0.4787745646139242, 0.05446640972977638, 0.6661363499200303, 0.02793770133773963, 0.32560731330369425, 0.12030273197078965], "lower_weights": [-0.12305976515981461, -0.27122003754988155, 0.20160981364053632, -0.5151829540403292, 0.4419612908027251, -0.6168381492921435, 0.13984034554187438, 0.03187947969118977], "leading_edge_weight": 0.4397317737989576, "TE_thickness": 4.824393530410356e-05}, "ah93w145": {"upper_weights": [0.1627182277747663, 0.28877974641101617, 0.1759702048629108, 0.533834794538588, 0.061598013163971295, 0.385394654796422, 0.12155479713190304, 0.31357635152174984], "lower_weights": [-0.15882948873161765, -0.13146513883542124, -0.039323506104158336, -0.135895468886717, -0.039049738481543986, -0.07594841840511352, -0.08316300793665794, 0.07680263952580339], "leading_edge_weight": 0.14099192729249593, "TE_thickness": 0.002011299682182347}, "ami43": {"upper_weights": [0.12848268696192566, 0.14803524973900767, 0.2231825233362313, 0.19150656866701155, 0.16194579272615334, 0.19959427425784398, 0.1652678373998888, 0.17554254282204673], "lower_weights": [-0.09896290497668289, -0.1526615307009311, 0.13285708160067658, -0.14461395937323007, 0.12646182131721706, -0.021394205660411378, 0.08159556563162373, 0.0288584426759419], "leading_edge_weight": 0.33567900627786107, "TE_thickness": 0.002394915768134698}, "amsoil1": {"upper_weights": [0.20990707929480382, 0.07908028487565184, 0.3176895511545537, 0.06620369546449499, 0.3677910042411845, 0.12959443829687775, 0.24331329289307524, 0.12013475282511192], "lower_weights": [-0.2073706945003527, -0.01989107542030287, -0.18987495430835558, 0.035137020196589194, -0.23658135161460092, -0.014657347366773972, -0.12566281396194773, -0.012444336754377337], "leading_edge_weight": 0.0806889804879372, "TE_thickness": 0.0045955851750815796}, "aquilasm": {"upper_weights": [0.1406493496063897, 0.15597881148306184, 0.31169386559970563, 0.14229999164990187, 0.29334919895716727, 0.15124077398679459, 0.20609065586696085, 0.15950858670673565], "lower_weights": [-0.11711571876611947, -0.05853301054200544, -0.018286466112421663, 0.01894684801803313, -0.0553671526009496, 0.024410622564435415, -0.02978520992377433, -0.0013675017555650059], "leading_edge_weight": 0.3491637768845191, "TE_thickness": 0.00011209140704908124}, "arad10": {"upper_weights": [0.24510672422685081, 0.21957201466331933, 0.19528647820164516, 0.2677156259469934, 0.18509441587562658, 0.22526971455446054, 0.21758725322854747, 0.20116917779940502], "lower_weights": [-0.14205177884477527, -0.06507373696961877, 0.04987802085758988, -0.08044541552451581, 0.04986978771208659, -0.02303917761929226, -0.0066870374620699065, -0.001877744360631668], "leading_edge_weight": 0.11422146231884789, "TE_thickness": 0.01497223553313446}, "arad13": {"upper_weights": [0.3008395521686801, 0.26527929477397205, 0.22571139795582626, 0.2894939243028092, 0.18364103076190913, 0.2373158776243869, 0.17586162149729176, 0.18156292142873642], "lower_weights": [-0.168203509489245, -0.10227213108578662, -0.0051988499185293465, -0.11977262683613857, -0.01003014746520829, -0.06736600459280481, -0.06046833308731865, -0.03944673012343707], "leading_edge_weight": 0.09392906432924848, "TE_thickness": 0.01796838028584996}, "as6095": {"upper_weights": [0.1857641161986873, 0.12011556811860392, 0.3574195195594603, 0.06096467129239606, 0.3944499859525895, 0.13443170544738337, 0.31345581468871925, 0.24110453388518574], "lower_weights": [-0.07782417055860016, -0.003858256925362069, 0.2992429290364374, 0.07976002940463979, 0.3129158329139475, 0.24015238615038645, 0.24860694724831023, 0.23826275053626406], "leading_edge_weight": 0.19985433488260415, "TE_thickness": 0.00011688033315666418}, "as6096": {"upper_weights": [0.20356383484624588, 0.15848599035524946, 0.3501125183584709, 0.09008076092110988, 0.3929535906892808, 0.13495674588424966, 0.3085194295774333, 0.24334816814969665], "lower_weights": [-0.07945651048286645, -0.026330515916695996, 0.28288173411527856, 0.05674731398853157, 0.32402062004396953, 0.24495959577736973, 0.24880251534383943, 0.24148748952019777], "leading_edge_weight": 0.14108292442655465, "TE_thickness": 0.00012107696109595525}, "as6098": {"upper_weights": [0.08477521380985437, -0.20647267686486154, 0.7647138098305452, -0.3052275964995532, 0.7770554283398028, -0.04258977468645061, 0.4762461411997999, 0.3186587258627116], "lower_weights": [-0.21761133213654493, -0.256930260854829, 0.5796679574870943, -0.08526806625021499, 0.5220047923336109, 0.1634207986275912, 0.3672663292507684, 0.32186615526194723], "leading_edge_weight": 1.1843556527595724, "TE_thickness": 0.0001734882078254404}, "as6099": {"upper_weights": [0.10413689698441, -0.13040820117122123, 0.6989185256332485, -0.2250893671008536, 0.7253209022104544, -0.013729202033136084, 0.45546822298278616, 0.3350741946422478], "lower_weights": [-0.2028457925699224, -0.266074080527768, 0.540107065327313, -0.14931161419463143, 0.5830412113731849, 0.12562382855137805, 0.39067415414736006, 0.32679170162338955], "leading_edge_weight": 1.0115717450032458, "TE_thickness": 0.00011232119467851338}, "atr72sm": {"upper_weights": [0.21583403542679513, 0.3458953875978893, 0.1955305745362591, 0.25215530624854576, 0.24453130263901526, 0.1758465149072965, 0.26103786770636034, 0.12787338732072304], "lower_weights": [-0.19487814314554464, -0.14378071130146344, -0.08953258277571427, -0.12700547495039094, -0.14482835611143505, -0.049276044248101364, -0.18022526225428512, -0.05391348550583599], "leading_edge_weight": 0.2025696410803018, "TE_thickness": 5.723628281602387e-05}, "b737b": {"upper_weights": [0.2043503324491571, 0.10599422257349475, 0.26302160915563005, 0.07825482185698619, 0.26496254054696816, 0.04892530028964089, 0.16596138245487949, 0.13520947384391216], "lower_weights": [-0.18529915302765113, -0.21219448137419095, -0.1317404285508646, -0.10197562969492709, -0.22402345646647812, -0.014097296966154324, -0.16061927502991272, -0.06574890004326217], "leading_edge_weight": 0.23644084775886223, "TE_thickness": 0.000811358281189301}, "be6568": {"upper_weights": [0.12383961072632806, 0.11532797388513719, 0.3222836008983135, 0.17985480548393887, 0.26120411211256817, 0.21317602343419406, 0.2972040152226988, 0.2795842789364047], "lower_weights": [-0.16220870492085585, -0.021519118389536518, 0.1066783862068213, 0.1846231855054349, 0.039087925665090506, 0.2841379336654164, 0.1461952368097901, 0.3135031249294085], "leading_edge_weight": 0.47874987884752285, "TE_thickness": 0.007365596774203482}, "be6699": {"upper_weights": [0.14083723851621519, 0.2913274722786387, 0.258202713268919, 0.48107893412594643, 0.10888724714644998, 0.571552037022635, 0.2398396642350844, 0.5655183963482727], "lower_weights": [-0.17696176451211548, 0.18673072254308865, 0.007833150474866827, 0.5169029311767648, -0.17007839545666806, 0.4937795592672744, 0.23877830134758796, 0.42672320995590696], "leading_edge_weight": 0.3662133499435678, "TE_thickness": 0.0073834039142183314}, "boe103": {"upper_weights": [0.21478209743533297, 0.12382643440882207, 0.36855589181618, 0.17202415804731785, 0.30665539646014967, 0.2592836605878569, 0.22711420930171497, 0.30716406407675184], "lower_weights": [-0.152589074254607, -0.252315504812763, 0.16891321535948498, -0.36223700256901126, 0.2016268053986084, -0.22185051818510018, 0.030917462784580685, -0.065999910050556], "leading_edge_weight": 0.4043985250630224, "TE_thickness": 0.001185405727013088}, "boe106": {"upper_weights": [0.20510045378651945, 0.1916964125608231, 0.32810984844100444, 0.20544477119362228, 0.279480545601561, 0.25575021250799373, 0.2331960814814667, 0.22331990664732793], "lower_weights": [-0.1474186708964559, -0.12761092449218678, -0.042090117472067236, -0.11536981669607986, -0.04711189630228607, -0.10341343121737046, -0.04668665636091427, -0.09067616897930254], "leading_edge_weight": 0.1537929711077086, "TE_thickness": 0.00037048456579114676}, "c141d": {"upper_weights": [0.1815895185855452, 0.09231718839775042, 0.26163467040771854, 0.05829001302665747, 0.32272324843873074, 0.11458188285561378, 0.28517111104157616, 0.22713443421565993], "lower_weights": [-0.16323579043278344, -0.04240376327784502, -0.191056404379129, 0.029934423892616326, -0.24715336053086062, 0.003730601462378333, -0.1544172518881665, -0.08686983504366111], "leading_edge_weight": 0.05306498219269094, "TE_thickness": 0.00225297125333117}, "c141e": {"upper_weights": [0.21653784186233235, 0.1780198273140849, 0.18728680275043771, 0.12281021721786971, 0.2928740093580121, 0.12643919988737778, 0.2909795094255344, 0.23710618557590096], "lower_weights": [-0.14787522656290317, 0.07056575181962149, -0.2870631955597504, 0.14185057320229602, -0.3155698405095089, 0.06434578478718435, -0.16144833674213915, -0.06684285549023573], "leading_edge_weight": -0.18137668348036934, "TE_thickness": 0.0026546312030106527}, "c141f": {"upper_weights": [0.21377570292277517, 0.11859407641013187, 0.26814899543981885, 0.031398376028778624, 0.412335005214496, 0.030789526445686735, 0.3687150399185122, 0.22240215527812637], "lower_weights": [-0.19889731203541325, 0.09310866977230706, -0.30043238371501463, 0.21466824178190935, -0.3431894814045922, 0.1229297049121287, -0.1513638340718985, -0.03158630190283607], "leading_edge_weight": 0.028154538747752898, "TE_thickness": 0.003494804507668319}, "cast102": {"upper_weights": [0.1310715417121795, 0.06274861423104605, 0.2765082110678293, 0.07874933389326964, 0.2657471095955061, 0.23055135872367932, 0.27267754306305186, 0.21884652573090874], "lower_weights": [-0.14180713237903564, -0.16276188857548896, -0.08901013998856948, -0.09655810178714541, -0.2707302826281412, -0.010996056848277836, -0.12959157191524032, -0.019318071747438048], "leading_edge_weight": 0.3332335078965749, "TE_thickness": 0.005125508064886847}, "cb2012": {"upper_weights": [0.13083284867211192, 0.20349936269374874, 0.15112529888429743, 0.3130181126166637, 0.07382850609329072, 0.3316085183032282, 0.14576006489251722, 0.18367212205088587], "lower_weights": [-0.15440242978968774, -0.23088521738347603, 0.042429707065946204, -0.2754962478919608, 0.07857252237305329, -0.2106822883209868, -0.014515443899192258, -0.054203713022043305], "leading_edge_weight": 0.23666572510790815, "TE_thickness": 0.00019689064726467352}, "cb2195": {"upper_weights": [0.16278624538544678, 0.13656592115633467, 0.270848475854032, 0.0030749396194398424, 0.35879003203630405, 0.0992589484498373, 0.20253463505188454, 0.15501329796044253], "lower_weights": [-0.10011536161032976, -0.053545987155405705, -0.0938650397372789, -0.07108311464578303, -0.06718015662096657, -0.044642419611062314, 0.007435525240608479, 0.05736020535402837], "leading_edge_weight": 0.017748117854424306, "TE_thickness": 0.00011306026277180295}, "cb2195-25d": {"upper_weights": [0.14995547417540356, 0.11834978877248567, 0.28677754221196394, -0.04146746968446731, 0.38936975811197105, 0.013078521817483339, 0.22815388591573346, 0.12765352655018014], "lower_weights": [-0.14385607472347361, -0.13847619745231093, -0.023307097764074674, -0.11403699855980745, -0.036062872535127716, -0.0023295655021075014, -0.0018731515233096846, 0.07485004431444335], "leading_edge_weight": 0.18514317179477977, "TE_thickness": 0.00042123181919081825}, "cb2513": {"upper_weights": [0.14103884117587812, 0.22382154199342275, 0.1733025086202502, 0.34932104916761014, 0.08625994519379607, 0.37359760334519776, 0.16660333956795573, 0.21058566626027223], "lower_weights": [-0.16788982507432015, -0.24692417947379847, 0.05581390045130144, -0.2885267142239365, 0.09160737481013778, -0.2139176062137022, -0.006896220742803573, -0.04736365079234007], "leading_edge_weight": 0.281417833292208, "TE_thickness": 0.00021399788015815318}, "cb2514": {"upper_weights": [0.15222545042226196, 0.23873836883019603, 0.1817032388462578, 0.36930739604580254, 0.09034650757499238, 0.3932413467240064, 0.17465235271077995, 0.220056898445926], "lower_weights": [-0.18047001578749944, -0.2680958467476634, 0.05481860329445902, -0.31684490741930244, 0.0949708475205854, -0.23829663946137697, -0.012992632722838496, -0.05735927909039389], "leading_edge_weight": 0.28923414139374404, "TE_thickness": 0.0002322499342500568}, "cb2515": {"upper_weights": [0.16341197708063884, 0.25401140198367334, 0.18903366508985023, 0.39143344664390545, 0.09165717166682447, 0.41519187481988346, 0.18149757863540356, 0.22997400627712508], "lower_weights": [-0.1930331858867193, -0.28922034215634135, 0.05385875272373184, -0.34544524868976667, 0.09911142619363575, -0.26381324497243314, -0.018079146071342013, -0.06784911075485797], "leading_edge_weight": 0.29683626832083965, "TE_thickness": 0.0002485737783495617}, "cb3013": {"upper_weights": [0.14007303872833268, 0.22913138369068514, 0.18741396432817095, 0.36534172351551736, 0.09490567830839518, 0.3959019000315208, 0.17959672756946876, 0.22799073698671574], "lower_weights": [-0.16884696314274583, -0.24167802782450987, 0.07013582210934872, -0.2729010904444826, 0.10066430493567256, -0.19176821878300607, 0.006093562547942101, -0.02993038292731353], "leading_edge_weight": 0.3186838233336248, "TE_thickness": 0.00021420052578161953}, "cb3512": {"upper_weights": [0.12797519570479746, 0.21918790577649072, 0.1943095609510694, 0.35842608249318214, 0.10380609183737746, 0.3945114252806634, 0.18680950771150234, 0.23490467554571876], "lower_weights": [-0.15720120935340354, -0.21516599138356918, 0.08507419170613464, -0.22852051194574763, 0.10609722238254936, -0.1452525488152011, 0.025040225534591825, -0.002546087863160792], "leading_edge_weight": 0.3478212294227265, "TE_thickness": 0.00019810866883154343}, "ch10sm": {"upper_weights": [0.1712826313117426, 0.31891737227947575, 0.40413733477730995, 0.4776762938618243, 0.4025187374426902, 0.5787639619001095, 0.39020441194849964, 0.5366283043699659], "lower_weights": [-0.15861099310974355, -0.022841716992358957, 0.0875317768886341, 0.08425430354830904, 0.17351055963256465, 0.17729760758067262, 0.23620028030845336, 0.32811160982032317], "leading_edge_weight": 0.4003316081469169, "TE_thickness": 0.0010225922705654148}, "clarkv": {"upper_weights": [0.15679812740122204, 0.22095838670059023, 0.19947401813135948, 0.2771329096136576, 0.23277100432689843, 0.2699044985202306, 0.2933927923746394, 0.3198755368854194], "lower_weights": [-0.14510764441666035, -0.10653554703773628, -0.05579077859316263, -0.07989983822915941, -0.020915628507702424, -0.07297200529555664, -0.02877313697643588, -0.04545769244782673], "leading_edge_weight": 0.15209091072076572, "TE_thickness": 0.001374900249135302}, "clarkw": {"upper_weights": [0.19073697551762514, 0.21223610944765953, 0.3041674758108455, 0.1254200489789026, 0.35361816996104734, 0.18371050350453966, 0.27858832507607223, 0.2544108349267905], "lower_weights": [-0.15800634404593356, -0.054469975112740265, -0.1357753979717643, 0.09226400301050713, -0.08634893460529196, -0.04933228319086493, -0.051100892948701, -0.06315095480694408], "leading_edge_weight": 0.05441276550517962, "TE_thickness": 0.0009959778073827601}, "clarkx": {"upper_weights": [0.15469207523440465, 0.30264649988418985, 0.11894395457507818, 0.3646204916144152, 0.1401697986790938, 0.30847198856413405, 0.21003749402021143, 0.25146195011336786], "lower_weights": [-0.16120207956403343, -0.04802407527093669, -0.14130709228137928, 0.0429154162516263, -0.1447338894583107, 0.01562783346039105, -0.07174476025581715, -0.031088634021203685], "leading_edge_weight": 0.019477622551919527, "TE_thickness": 0.001195968090825072}, "clarky": {"upper_weights": [0.11146059652835251, 0.1111482157375274, 0.3540359855927967, 0.11544875143050576, 0.3605272519555324, 0.16905622374036217, 0.27504475195282574, 0.23196529950836406], "lower_weights": [-0.21067310508472628, -0.24226669345203702, 0.08575311379553766, -0.18367308972116014, 0.05097479082044362, -0.10231746298049114, -0.014222577935528091, -0.0448811005478053], "leading_edge_weight": 0.5617998359368318, "TE_thickness": 0.0011884393447357579}, "clarkysm": {"upper_weights": [0.1783965976218935, 0.1854838156829425, 0.33177151929216797, 0.11326996758139549, 0.37587044067756725, 0.17241511416623512, 0.27446731739861585, 0.2530760029286995], "lower_weights": [-0.15951247916226918, -0.11598956986542959, -0.034487955121197365, -0.06791295813953262, -0.0323290510065751, -0.05821701512754482, -0.023907743805247687, -0.05669466128484392], "leading_edge_weight": 0.18756304926792833, "TE_thickness": 9.910537101429511e-05}, "clarkz": {"upper_weights": [0.17440108610450522, 0.07370056149830902, 0.4685134148996523, 0.025005474273520463, 0.4625556339936089, 0.12490871202146053, 0.3153598612481744, 0.23499632154269237], "lower_weights": [-0.20962111588530252, -0.1722307051392475, 0.07037026213806685, -0.15706939347547932, 0.06321452685563035, -0.09507828455822101, -0.0003578182930336731, -0.03658805631895488], "leading_edge_weight": 0.5085925856011915, "TE_thickness": 0.001210102130176796}, "clarym15": {"upper_weights": [0.19753630031777494, 0.17863862084675905, 0.41361341795544176, 0.11755129248176152, 0.45752533684871594, 0.17082953488803304, 0.3381746647600805, 0.2657173692890863], "lower_weights": [-0.2226013470770739, -0.24661950639377128, 0.013160418380081338, -0.18730562140926374, -0.017147051246154732, -0.12110338213270257, -0.061389251263740494, -0.0791858744395036], "leading_edge_weight": 0.4144193715133788, "TE_thickness": 0.0016033235103675842}, "cootie": {"upper_weights": [0.15959423858884894, 0.3311973423141489, 0.1070125359962315, 0.4647812205118589, 0.009804541280303548, 0.45801130007759566, 0.12849585031906036, 0.27076086644865], "lower_weights": [-0.10589264897061682, 0.1174519434772748, -0.047932293551395895, 0.06288654366674722, 0.1453475840148194, -0.11082130048530998, 0.13196236211636517, -0.010429321859946649], "leading_edge_weight": -0.013137420102028447, "TE_thickness": 0.004916764597102595}, "cr1": {"upper_weights": [0.13985275561025512, 0.2840181327742457, 0.19478755921061935, 0.3653975624549913, 0.23388137758256883, 0.3354067723115217, 0.23077097071437663, 0.2737583545701321], "lower_weights": [-0.21722114740379878, -0.21992344241165035, 0.16023094628577877, -0.19656327848216776, 0.11209114065912054, -0.10077581004713122, 0.018307903036728714, -0.10898222660181035], "leading_edge_weight": 0.39797139387078007, "TE_thickness": 0.0}, "curtisc72": {"upper_weights": [0.17099329200300384, 0.1934250245899041, 0.3028397523117786, 0.16699922718690258, 0.3190000351706288, 0.21150069295637766, 0.2511647080880448, 0.25303501519225025], "lower_weights": [-0.16277011902264177, -0.12345480910708548, -0.016603514064284255, -0.12137127952067514, 0.04699573310265022, -0.02112763165397156, 0.010099758816922702, 0.007734054969555397], "leading_edge_weight": 0.2323810506040949, "TE_thickness": 0.0010224534651582806}, "dae11": {"upper_weights": [0.17036013700996946, 0.15272658227663408, 0.5168855052761484, 0.09212467373801772, 0.6690444926176292, 0.14345863937200884, 0.289903864296468, 0.16207356912313156], "lower_weights": [-0.16310507602273808, -0.1439852844286146, 0.08896135094863114, -0.07060839922621043, 0.09741633987709018, 0.014660306050880726, 0.07888292008792841, 0.08075121669738441], "leading_edge_weight": 0.5035068867316295, "TE_thickness": 0.00011059192135105678}, "dae21": {"upper_weights": [0.17478904184868221, 0.09268420453004617, 0.5527960751358194, 0.05415793362588926, 0.6014627665344229, 0.20601793633618118, 0.2838243537186288, 0.1590953486698017], "lower_weights": [-0.18679807682210844, -0.11959425687367138, 0.05676095319688002, 0.01164169681685413, 0.04512442373114583, 0.07923565684799398, 0.07586587287636165, 0.09707301842366077], "leading_edge_weight": 0.5764299186691028, "TE_thickness": 0.00014466083587046536}, "dae31": {"upper_weights": [0.15802866579745423, 0.07390099050194579, 0.5219881158657956, 0.12159376550410227, 0.4525815148409035, 0.3536301268253611, 0.2933275840215748, 0.2161186348900191], "lower_weights": [-0.21078715179070828, -0.13562512975210278, 0.08784920763043862, 0.011734740181597016, 0.0767035579221818, 0.08964252673124112, 0.09649085911527248, 0.10980752970612327], "leading_edge_weight": 0.6833713580928182, "TE_thickness": 6.653281503225694e-05}, "dae51": {"upper_weights": [0.12430156361820414, 0.12421885108237579, 0.30032512116113774, 0.15847553812205967, 0.27856977835326174, 0.22614654278719182, 0.22207686328525694, 0.1802947806377327], "lower_weights": [-0.13293075479944466, -0.10447556740448731, 0.01501741702241234, -0.032204582688799915, 0.015551735084040902, 0.012363905257811099, 0.04622070601467068, 0.05638563957920282], "leading_edge_weight": 0.3166348548807359, "TE_thickness": 0.0020797922652680437}, "daytonwright6": {"upper_weights": [0.14034348288675608, 0.2548326652599206, 0.3211987707326643, 0.35912530912075286, 0.14000051966741373, 0.47607692964133935, 0.15031575762628482, 0.38991837547577735], "lower_weights": [-0.2130885148430157, -0.22815874013148335, 0.1464449937985822, -0.2388271560075919, 0.17468859732822606, -0.24487955630379782, 0.08100636177597802, -0.16187863914431008], "leading_edge_weight": 0.5284903641184475, "TE_thickness": 0.0}, "daytonwrightt1": {"upper_weights": [0.17334603154504913, 0.2663664808178262, 0.2932109493610374, 0.24953860313329074, 0.3209600624625552, 0.2760566532343807, 0.313266933468099, 0.28978086659847796], "lower_weights": [-0.20959396094597324, -0.1554875515594856, -0.024275846969221995, -0.08367394806298756, 0.09347188150354489, -0.2148947492699875, 0.022061311058898456, -0.11613221308981553], "leading_edge_weight": 0.27538282465646435, "TE_thickness": 0.002105809420287309}, "defcnd2": {"upper_weights": [0.13705263173219834, 0.14989702635238733, 0.4955820998237702, 0.07979438101029253, 0.41272694984566033, 0.24275607396459353, 0.23054867849298127, 0.22956696117634307], "lower_weights": [-0.17397328311658608, -0.2772369841120702, 0.09748647605827071, -0.25415489223335264, 0.006959175884810424, -0.15856806496860737, -0.0423184938419943, -0.0862932469739609], "leading_edge_weight": 0.5468658113952972, "TE_thickness": 0.0}, "defcnd3": {"upper_weights": [0.27628596970251296, 0.2860724501663858, 0.18424597703775822, 0.19540900900126293, 0.21225863451688393, 0.15743382982483342, 0.1661735974671285, 0.24244023054707903], "lower_weights": [-0.08483096684077843, 0.05042679246823294, -0.2660136322052793, 0.1054319275506512, -0.2363091273402591, 0.03940240383889429, -0.08684098997261519, -0.05029674038803098], "leading_edge_weight": -0.2688938388099989, "TE_thickness": 0.0}, "df101": {"upper_weights": [0.1372425817820162, 0.2073434927351239, 0.13324469571622125, 0.29834084653859344, 0.11562747243230613, 0.2385591467388491, 0.19610157885045162, 0.1491940421439445], "lower_weights": [-0.12617722008095766, -0.22227170275587763, 0.03322516316324861, -0.16436786177447982, -0.024334718508205056, -0.04816068585990879, -0.08588125266301157, -0.03163370895457016], "leading_edge_weight": 0.20439928861597112, "TE_thickness": 0.0}, "df102": {"upper_weights": [0.17788749125222464, 0.21239789939605846, 0.08139449216131726, 0.3906586815753246, 0.024319755310537743, 0.30255128768533435, 0.1684795188269964, 0.15829933713341945], "lower_weights": [-0.11510899345318767, -0.23091046623698935, 0.05712263745875247, -0.19450394107935384, 0.007560809995109446, -0.0682033660082807, -0.07508546715074146, -0.03372154181899501], "leading_edge_weight": 0.19183634394914623, "TE_thickness": 0.0}, "dfvlrr4": {"upper_weights": [0.24623720053470224, 0.2812651357685355, 0.03636480528695612, 0.3904402138183729, -0.015781099983251407, 0.4513576115294568, 0.13925656036884046, 0.3202929899314905], "lower_weights": [-0.10075943084792355, 0.004822898412797122, -0.3183835224941068, -0.008797435846962048, -0.2290076897526698, -0.19097146935877027, 0.055695172711462425, 0.1983527592578951], "leading_edge_weight": -0.34036461796979334, "TE_thickness": 0.004771765726911132}, "ds19": {"upper_weights": [0.10386909987319924, 0.07503620329531761, 0.25471582457613595, 0.06185564565663825, 0.22774113222107525, 0.12037492208163365, 0.14998511561041583, 0.1557197894618257], "lower_weights": [-0.14115549307694003, -0.14723618935685828, -0.003272249003074691, -0.09819382865227155, -0.009152085552400067, -0.05720495988362669, 0.006612428683970012, 0.037972630760384755], "leading_edge_weight": 0.3104813618228204, "TE_thickness": 0.0}, "ds21": {"upper_weights": [0.1292040337492424, 0.13673921427799837, 0.18169891750262546, 0.13268312662010084, 0.16994632180425598, 0.1433452787594584, 0.13376543118573062, 0.1470849089412761], "lower_weights": [-0.11965756011026286, -0.09024458482445907, -0.07296448393013824, -0.03333303820416117, -0.07767845260908451, -0.030245587941943954, -0.01927659923660991, 0.03125050931085471], "leading_edge_weight": 0.11870927818993827, "TE_thickness": 0.0}, "du-80-141": {"upper_weights": [0.19052151059579475, 0.26376930917687896, 0.1859901809610205, 0.40481059796563784, 0.04469068287243844, 0.4824218243035267, 0.004813475518117984, 0.4578654225717595], "lower_weights": [-0.15323410136783497, -0.10887764497176625, -0.22092437899406017, 0.20549099055405454, -0.6601768093249226, 0.4720915158884834, -0.11387086213133142, 0.17216437121791023], "leading_edge_weight": 0.12339779783954283, "TE_thickness": 0.0007352622072442094}, "du80141": {"upper_weights": [0.19052151059579475, 0.26376930917687896, 0.1859901809610205, 0.40481059796563784, 0.04469068287243844, 0.4824218243035267, 0.004813475518117984, 0.4578654225717595], "lower_weights": [-0.15323410136783497, -0.10887764497176625, -0.22092437899406017, 0.20549099055405454, -0.6601768093249226, 0.4720915158884834, -0.11387086213133142, 0.17216437121791023], "leading_edge_weight": 0.12339779783954283, "TE_thickness": 0.0007352622072442094}, "e1210": {"upper_weights": [0.2737565971618951, 0.3277944927434052, 0.38428609233067784, 0.26236313435321323, 0.31641151005172, 0.24432669217385203, 0.20854497430242552, 0.2698847714765668], "lower_weights": [-0.23138554687464058, -0.2017745564849715, 0.08711111883741854, -0.19754530818055238, 0.10881010512050794, -0.0725110146935596, 0.03399337265251507, 0.049031838666993004], "leading_edge_weight": 0.32471219903290366, "TE_thickness": 0.0}, "e197": {"upper_weights": [0.13458956160888538, 0.2097825859182323, 0.22257767502778322, 0.30786359093095605, 0.24092736455192174, 0.1848324948062348, 0.22917201913099344, 0.17038221639739826], "lower_weights": [-0.1403969098927559, -0.2175986047556188, 0.018870659537528894, -0.26370338305202295, 0.05608496530954779, -0.13130581559578472, -0.03696686585735946, -0.026024582584331307], "leading_edge_weight": 0.2146142004650997, "TE_thickness": 0.0}, "e203": {"upper_weights": [0.1284601695991304, 0.1951658497680516, 0.22590084183423648, 0.2918157035880226, 0.23100490807294768, 0.20366050091654947, 0.2363077163927902, 0.23155898419695237], "lower_weights": [-0.14871250068154557, -0.24086072372752093, 0.02707840262292087, -0.3214866148280776, 0.11653618749726123, -0.16141734794034712, -6.210364966017948e-05, 0.02520293108249023], "leading_edge_weight": 0.23316973511053246, "TE_thickness": 0.0}, "e205": {"upper_weights": [0.11544255448150917, 0.14376707472292707, 0.25658024420695974, 0.2249020426194837, 0.18435957223567426, 0.16350737745583957, 0.17802699494981836, 0.1455909879608434], "lower_weights": [-0.1333434189385707, -0.18239866910295566, 0.05874890532418198, -0.158222280013452, 0.026471504736574294, -0.0683648212708708, -0.03773933072624284, -0.05292646415750508], "leading_edge_weight": 0.3207883096734174, "TE_thickness": 0.0}, "e207": {"upper_weights": [0.13746748090242383, 0.19138997089339463, 0.22399234325669518, 0.2708419730522474, 0.1654558019758661, 0.18957569821694628, 0.18417758729612171, 0.17022342391378784], "lower_weights": [-0.12731273655870995, -0.19101659567119422, 0.022919577374536093, -0.22381383355456347, 0.03729130077270087, -0.10936297114814468, -0.04392734700381988, -0.041219479282998316], "leading_edge_weight": 0.19934738915484584, "TE_thickness": 0.0}, "e209": {"upper_weights": [0.16780777952885748, 0.25682372489699845, 0.17666775042590133, 0.3309571196486104, 0.13744896264259693, 0.22176040538467992, 0.1896545137154336, 0.19684393238857004], "lower_weights": [-0.11551697510885374, -0.18246844507365587, -0.035693955227263076, -0.27661104812882037, 0.04096417695652459, -0.14745863028992284, -0.04906619877405945, -0.028330474976133946], "leading_edge_weight": 0.02086799930243287, "TE_thickness": 0.0}, "e210": {"upper_weights": [0.18573402184331544, 0.25289777097210286, 0.28366803011538144, 0.31335106531086615, 0.24959668926821263, 0.26996722629453984, 0.27258587814791085, 0.36169290761304923], "lower_weights": [-0.11494983791699337, -0.16762950231101914, 0.04074459935435161, -0.24802010375139852, 0.12075460352718126, -0.07898537527624161, 0.03951652882436665, 0.12320169750191014], "leading_edge_weight": 0.1346760673737995, "TE_thickness": 0.0}, "e214": {"upper_weights": [0.15270120250907926, 0.21093809504847097, 0.2280977935798948, 0.2950450339816469, 0.20302632794527847, 0.30801436130927035, 0.23843173337141, 0.36673865290265173], "lower_weights": [-0.10472646706072979, -0.13131275038408263, 0.042261283152191347, -0.14492010144099784, 0.033582404745117984, 0.0283654044509767, 0.024297861827791187, 0.17684304491929517], "leading_edge_weight": 0.16670107848038102, "TE_thickness": 0.0}, "e222": {"upper_weights": [0.10239381309398177, 0.1236502910068665, 0.224279425163374, 0.18207882091595345, 0.1886780980162482, 0.2183470138210717, 0.17895015015095522, 0.24886136651938753], "lower_weights": [-0.14068600545940255, -0.2186196678415934, 0.05991287922280496, -0.20043913627270712, 0.04849732375090417, -0.06963169133773726, -0.01736909213208269, 0.09502713351410376], "leading_edge_weight": 0.32421585174117856, "TE_thickness": 0.0}, "e224": {"upper_weights": [0.15285741510453113, 0.23716818878959606, 0.09324604878856824, 0.27295036195271405, 0.09373677908286109, 0.2263732386040316, 0.148062096456348, 0.17720337097939629], "lower_weights": [-0.08545423129508149, -0.11120839186658904, -0.06292075453090992, -0.11685905230726643, -0.04327092990785417, -0.05946420858220468, -0.05436303940444587, 0.031119650022280766], "leading_edge_weight": -0.07111926483173471, "TE_thickness": 0.0}, "e327": {"upper_weights": [0.17158400941523558, 0.17689525736640171, 0.34456950409222925, 0.11627879337765959, 0.2600295872383954, 0.13228075504987327, 0.14022080062380843, 0.1602105551439939], "lower_weights": [-0.11927224997333943, -0.20979928018719188, 0.06904993495593882, -0.3564358090106433, 0.11817836323994267, -0.3581231794030555, -0.15394173030273747, -0.07324327444698873], "leading_edge_weight": 0.3032577879884413, "TE_thickness": 0.0}, "e328": {"upper_weights": [0.14297126922736914, 0.062430769160806636, 0.5003455247273604, -0.009623121207441257, 0.3928158203673799, 0.08624944682375861, 0.18593509114180992, 0.1926027164250818], "lower_weights": [-0.16094208951586958, -0.30612073664345685, 0.1769392025929965, -0.43818372198410677, 0.20457562741525429, -0.38893401893423907, -0.11009888336872227, -0.04113626814976532], "leading_edge_weight": 0.6368522455393667, "TE_thickness": 0.0}, "e329": {"upper_weights": [0.158968123747232, 0.08233443097131841, 0.5114793804150912, 0.021533207151863874, 0.39746109853153605, 0.1231151790526142, 0.19778855267725734, 0.2370203884876496], "lower_weights": [-0.15533551910575566, -0.2739853756219641, 0.15819141858886887, -0.3925823312482972, 0.19875480982618635, -0.3661640520345156, -0.0811517536170368, -0.005012138842208199], "leading_edge_weight": 0.6082542899966333, "TE_thickness": 0.0}, "e332": {"upper_weights": [0.17453612401368673, 0.19243723638190574, 0.3172635813385867, 0.13043213744974644, 0.23624330778963137, 0.12909724755595334, 0.12916373579297652, 0.1337280484553906], "lower_weights": [-0.10272498619997403, -0.13049492441621555, 0.006236097091233052, -0.14488139771754938, -0.0830906020162721, -0.04619373539244665, -0.2631352563858595, -0.07045468587667458], "leading_edge_weight": 0.24186949881607853, "TE_thickness": 0.0}, "e333": {"upper_weights": [0.1435866437014747, 0.07109867250969087, 0.48004971194409934, -0.0001495561227333311, 0.3732532381050312, 0.08138757874365497, 0.17655299965326174, 0.1663836498231346], "lower_weights": [-0.14616682781017243, -0.23428827617723935, 0.12428685058352988, -0.2379080529726609, 0.014284755034849814, -0.08016859104451877, -0.22454690888515896, -0.03482331829677167], "leading_edge_weight": 0.5983386587283603, "TE_thickness": 0.0}, "e334": {"upper_weights": [0.1653565198191953, 0.11247117785475315, 0.467327470239883, 0.055448979053465866, 0.35726777931927967, 0.1308976798937341, 0.182695767806371, 0.21104095621957022], "lower_weights": [-0.13287773712064185, -0.18402555445104418, 0.08960648062230969, -0.17572913565297502, -0.006853165511727681, -0.03981140504646911, -0.21315705919707148, 0.011608088976180972], "leading_edge_weight": 0.5121727130669715, "TE_thickness": 0.0}, "e335": {"upper_weights": [0.15726433324401687, 0.15914311280637544, 0.34263574023285975, 0.07474500585943807, 0.2531861334185141, 0.0768679968097401, 0.11799359461178864, 0.08021132274944666], "lower_weights": [-0.12613414965729577, -0.22198083865315743, 0.04124685978467646, -0.25348637410932545, -0.09772087919726696, -0.09422430350936127, -0.37146775165136886, -0.1367840478606415], "leading_edge_weight": 0.347777488546825, "TE_thickness": 0.0}, "e336": {"upper_weights": [0.1812626262992476, 0.20400478082623158, 0.3340597828216652, 0.11842719261555462, 0.25631440426295915, 0.11135461782813862, 0.13346846430350434, 0.1228229915348312], "lower_weights": [-0.11365719685345672, -0.16581467235903946, -0.0024712698732593935, -0.18519271541661192, -0.12514899207251606, -0.053304609789504194, -0.3628596419295927, -0.09000126514910421], "leading_edge_weight": 0.24837103805517252, "TE_thickness": 0.0}, "e337": {"upper_weights": [0.15376897713134058, 0.09133569734633906, 0.48703606341858724, 0.004032830197429855, 0.37424502555072775, 0.07833553155173784, 0.17336176105047374, 0.1576160170272789], "lower_weights": [-0.15420757763774826, -0.26410524236369126, 0.11305834467858762, -0.2822120561214899, -0.021854850152730834, -0.09502730226997058, -0.3207562702269662, -0.05564140111842634], "leading_edge_weight": 0.5771090921117032, "TE_thickness": 0.0}, "e338": {"upper_weights": [0.17318175700867067, 0.1271919379871283, 0.4819819949547493, 0.051625117371127516, 0.36644813941726306, 0.12236754553888113, 0.18264344426815982, 0.20141469047254199], "lower_weights": [-0.14491247030817772, -0.21477109376797776, 0.07401244671624443, -0.21386668045174673, -0.049174738531540065, -0.052881592948156385, -0.31030226833373326, -0.008793002165266876], "leading_edge_weight": 0.5079550996559479, "TE_thickness": 0.0}, "e339": {"upper_weights": [0.11847125919090062, -0.07441953967164909, 0.7286869593213173, -0.16842542873800384, 0.5749413288019453, 0.02900666302541059, 0.24716787748375077, 0.22851237347996153], "lower_weights": [-0.2148694261426348, -0.3963398532480157, 0.27295124771964996, -0.39465755082286136, 0.11990690830448235, -0.13593752684013918, -0.2500413748047264, 0.018951167705733643], "leading_edge_weight": 1.0730840708893796, "TE_thickness": 0.0}, "e340": {"upper_weights": [0.18572704627695935, 0.20671267889255038, 0.35189670813692603, 0.10316225320181396, 0.2592002113362574, 0.09745990640433617, 0.12528760650214316, 0.0978456551599485], "lower_weights": [-0.12338312272677951, -0.19482421321701884, -0.00859348514328706, -0.21176324709062758, -0.16116365358965984, -0.05625894383954909, -0.4302335505736543, -0.11946283553139968], "leading_edge_weight": 0.2634296890287997, "TE_thickness": 0.0}, "e341": {"upper_weights": [0.15730144678843447, 0.09211704621822775, 0.5090129548167874, -0.02145651902805704, 0.39146710119865313, 0.05196885724101523, 0.1715149457779467, 0.12930643237205952], "lower_weights": [-0.16452218901889978, -0.2972484216523655, 0.11384651908114393, -0.32057942298711856, -0.04371344167572195, -0.11133486922141088, -0.38016215270915893, -0.08747189314890597], "leading_edge_weight": 0.5984740345233956, "TE_thickness": 0.0}, "e342": {"upper_weights": [0.18194481270922916, 0.13454763258775004, 0.4994306471888262, 0.032701481634562296, 0.37859614985538176, 0.10062634958630609, 0.17939903761640572, 0.1751466798497225], "lower_weights": [-0.15434291473952613, -0.23725636315285045, 0.06002729364762502, -0.23768319016127978, -0.08616827421144013, -0.060480495917563895, -0.3761503958388134, -0.03962543373574346], "leading_edge_weight": 0.5032593156611849, "TE_thickness": 0.0}, "e343": {"upper_weights": [0.20417214563679897, 0.16698724167338475, 0.49973993142543477, 0.0753343584929195, 0.37500154526302204, 0.1422206536319637, 0.1895160023843172, 0.2184735022626588], "lower_weights": [-0.14251212680131886, -0.19620310987570888, 0.04370965187173314, -0.213859704023721, -0.05049306224527336, -0.08593568762092367, -0.3113063233781173, -0.025490764294068432], "leading_edge_weight": 0.432014208625381, "TE_thickness": 0.0}, "e344": {"upper_weights": [0.1499288660653641, -0.016757523326995948, 0.7216499926565086, -0.11549959978325088, 0.5573247253232225, 0.0651049896848222, 0.2467733050156408, 0.24715283734090462], "lower_weights": [-0.21070105104430437, -0.3634607952948046, 0.21943077424817617, -0.3589639377310311, 0.06924046965804452, -0.11677200216159819, -0.2956403464980875, 0.030844926186160356], "leading_edge_weight": 0.9648591008396685, "TE_thickness": 0.0}, "e360": {"upper_weights": [0.19205904437810883, 0.15797723412258066, 0.19764378652952816, 0.2457245881122135, 0.15497302192891052, 0.17987884261367798, 0.13514720656013357, 0.15189088816165805], "lower_weights": [-0.11833157855935986, -0.1582196407948473, -0.062059423536047986, -0.17058439918451465, -0.09771369604155886, -0.18197822645724385, -0.12202535948956232, -0.081313907581453], "leading_edge_weight": 0.1378937493939329, "TE_thickness": 0.0}, "e361": {"upper_weights": [0.1958390179905392, 0.16689147190795803, 0.19187358542061195, 0.2571308715715204, 0.1509523941703177, 0.17047231610726568, 0.13223274166696966, 0.11918591090012877], "lower_weights": [-0.11521395830006832, -0.14385063655351024, -0.07231928753579119, -0.1475413843279189, -0.11035245179483849, -0.1603625256969177, -0.11907184149452611, -0.10564729566270367], "leading_edge_weight": 0.11563238838993176, "TE_thickness": 0.0}, "e392": {"upper_weights": [0.20202796450023683, 0.353218381832398, 0.06630479979874335, 0.43074101536974346, 0.1057715482201747, 0.2720188566719562, 0.18540664045798755, 0.20664048597437312], "lower_weights": [-0.04044470514518956, 0.05907380308053, -0.14405515804916016, 0.0821906554865147, -0.10395234294052702, 0.0895769752335377, -0.01858223195257321, 0.11396423930857207], "leading_edge_weight": -0.30122207741238005, "TE_thickness": 0.0}, "e393": {"upper_weights": [0.12693776653159203, 0.1842931508654158, 0.2493185129044422, 0.2877496605091428, 0.25282087990740987, 0.22823421636551924, 0.24424098334491073, 0.26322346383838363], "lower_weights": [-0.12043318709817265, -0.18506771811825157, 0.0873341438685919, -0.22094936269843052, 0.1183697701584674, -0.04729179427558464, 0.03955244527400411, 0.14965246169961238], "leading_edge_weight": 0.28675783287966167, "TE_thickness": 0.0}, "e395": {"upper_weights": [0.15558154657143128, 0.28864299416459044, 0.18304664471120516, 0.4232654894363684, 0.18879083018549642, 0.4244406026007071, 0.2138804424886871, 0.3925465088863824], "lower_weights": [-0.11589435633512242, -0.17309219854466637, 0.08170247306193579, -0.1690509933708062, 0.13292593680065523, -0.013793993814724232, 0.07784208743980642, 0.21396570455509642], "leading_edge_weight": 0.11866119598275979, "TE_thickness": 0.0}, "e396": {"upper_weights": [0.17032844974949465, 0.31468050084126337, 0.19005428715543515, 0.44696155127355075, 0.20725898528495765, 0.4361127217835348, 0.23013971951385775, 0.3803882324828042], "lower_weights": [-0.1142608341829698, -0.16524058078470102, 0.06662820251234955, -0.16358348997536798, 0.12115959019381728, -0.017385007539076194, 0.0718777134848546, 0.19958327676593046], "leading_edge_weight": 0.08462949494375122, "TE_thickness": 0.0}, "e398": {"upper_weights": [0.16523311267776938, 0.2918657763293451, 0.22837818399992593, 0.45322346674100744, 0.2210648884480973, 0.4019628706242736, 0.24181464142025483, 0.3641295933890409], "lower_weights": [-0.13860526030687584, -0.21863644619908235, 0.08203570683005355, -0.21216804599267625, 0.13149794814573001, -0.04712258785843134, 0.06732887694575042, 0.18907153123949877], "leading_edge_weight": 0.19842221084438577, "TE_thickness": 0.0}, "e399": {"upper_weights": [0.1899693144148484, 0.3679017880340757, 0.1515547447889374, 0.5417283073865093, 0.15343579920132733, 0.45315580850535736, 0.2255893633654009, 0.3820866504631646], "lower_weights": [-0.12082867436781437, -0.16663070168578223, -0.0043307633585771416, -0.15718082968246938, 0.06659886414896889, -0.021820550925334647, 0.04809527090909185, 0.20152167599348614], "leading_edge_weight": 0.002064066000597657, "TE_thickness": 0.0}, "e420": {"upper_weights": [0.3170233238638594, 0.2778695621000098, 0.6096160897048941, 0.34982184993312676, 0.5317479346453196, 0.3644360909361759, 0.42213028084846554, 0.5973868889594662], "lower_weights": [-0.18580722344009046, -0.03275298040134211, 0.049355190156812015, 0.28507293634119485, -0.05542230931333257, 0.35757634332515614, 0.08640487671683071, 0.2969388667122205], "leading_edge_weight": 0.35304872682423, "TE_thickness": 0.0}, "e421": {"upper_weights": [0.19892331386944287, 0.021701399765989934, 0.8102817511769855, 0.0457444017290046, 0.6645373460642232, 0.16983790659878958, 0.41897220292023346, 0.4309785548041686], "lower_weights": [-0.2648705284194871, -0.35853282798452313, 0.33722908294209725, -0.14284090930407933, 0.20069285075772145, 0.08610208777177683, 0.10927209968812625, 0.14543421097526826], "leading_edge_weight": 1.0310029988222629, "TE_thickness": 0.0}, "e422": {"upper_weights": [0.22359050253905127, 0.11159436917859984, 0.6710312306690241, 0.07851964682489371, 0.5391640996482179, 0.14369266873872177, 0.34140880697059084, 0.29816346618564343], "lower_weights": [-0.1975901984770087, -0.27893109056381143, 0.2347816487957999, -0.12893396521464776, 0.14404433822361554, 0.0431194666374402, 0.04620323602745522, 0.026991496133465225], "leading_edge_weight": 0.681951638113298, "TE_thickness": 0.0}, "e423": {"upper_weights": [0.2543936673371814, 0.21958399991890565, 0.5665781985645391, 0.2581777840150215, 0.6217333667512871, 0.2750375062715433, 0.4510427645428544, 0.5737681579398132], "lower_weights": [-0.17882702875042758, -0.10870001336213612, 0.1938040760661908, 0.09801217622162355, 0.10628887188841289, 0.24164570431611024, 0.13661849110092567, 0.2676154306232616], "leading_edge_weight": 0.46831761964435153, "TE_thickness": 0.0}, "e431": {"upper_weights": [0.17033777722100607, 0.2052514518934954, 0.36055824753737065, 0.23625925725244995, 0.429190726210724, 0.29710090091058033, 0.30088161083488213, 0.34771180922464007], "lower_weights": [-0.1310179452799944, -0.20258400884430816, 0.034712785277518726, -0.18784431765900284, -0.019431921126132262, -0.182800528414409, -0.002512422268215617, 0.14988330520897222], "leading_edge_weight": 0.33048642858043764, "TE_thickness": 0.0}, "e432": {"upper_weights": [0.20389531637233727, 0.28653893752692283, 0.3001359603851053, 0.38187004899061855, 0.3309590362074827, 0.29749166570201774, 0.28477177465615433, 0.33207004421662956], "lower_weights": [-0.12319155122014314, -0.1481532833411794, -0.04017753553915302, -0.11335668116181097, -0.09174731858541228, -0.14387276582250255, -0.02589327238820216, 0.14978707443981126], "leading_edge_weight": 0.19330109799895273, "TE_thickness": 0.0}, "e433": {"upper_weights": [0.14832217154148172, 0.17078781356333458, 0.34255686483423065, 0.24004795275335447, 0.33822707490595066, 0.37335876439673316, 0.2919648523996225, 0.3667693607187477], "lower_weights": [-0.13302204703060377, -0.2205165705208067, 0.06423528891927771, -0.21017797272903932, 0.007891840494022143, -0.19097141872193205, 0.007992558063365176, 0.15690219304021674], "leading_edge_weight": 0.38764395473220653, "TE_thickness": 0.0}, "e434": {"upper_weights": [0.15588994247809654, 0.1650551465389616, 0.37579802592834816, 0.172594729604369, 0.4526177377402088, 0.2192463257420971, 0.2919064754964699, 0.26068441407798826], "lower_weights": [-0.12236765629071192, -0.2087428961856387, 0.12101388766396207, -0.27449030372507444, 0.15142357436120682, -0.2289375101328001, -0.04045351496978052, 0.08269834633718463], "leading_edge_weight": 0.37985545114444924, "TE_thickness": 0.0}, "e557": {"upper_weights": [0.1920800691986571, 0.32201452440250755, 0.1509310562740411, 0.4955060539714359, 0.025199690619711623, 0.532228126835897, 0.09637271163672739, 0.4676477718984028], "lower_weights": [-0.1308515312308886, -0.1955097377691432, -0.07983392757053477, -0.31056090076102727, 0.1265630206433679, -0.11381770901126327, 0.0652798150142761, 0.21005713509008445], "leading_edge_weight": 0.04645321996410513, "TE_thickness": 0.0}, "e562": {"upper_weights": [0.23241675402220344, 0.3811877375051227, 0.1673589945145961, 0.43154278339602153, 0.11182966049059014, 0.42267450177580856, 0.1548395136393292, 0.4486052794151847], "lower_weights": [-0.10667522381790745, -0.13607989259338055, -0.1258860756992292, -0.0848051104011725, -0.024258363172003774, 0.017343291788161, 0.007067052062832495, 0.18028194934460418], "leading_edge_weight": -0.14645098422696748, "TE_thickness": 0.0}, "e582": {"upper_weights": [0.14173231685001642, 0.1506239746223579, 0.40542196447701606, 0.1823917799234611, 0.4656082582555924, 0.26446552931531425, 0.3077474090478167, 0.3351759750651297], "lower_weights": [-0.13931057666981647, -0.27700842907110296, 0.17695360909838617, -0.40837270971480805, 0.28592969514360733, -0.44728168107579114, 0.08437297710501533, 0.11733943483792213], "leading_edge_weight": 0.49083812971045426, "TE_thickness": 0.0}, "e585": {"upper_weights": [0.14327286951506435, 0.16573264678234567, 0.382961457015119, 0.20499540332437383, 0.441257507355001, 0.2759696993045264, 0.29942225695232805, 0.3271304888796736], "lower_weights": [-0.13860628223570495, -0.24912975275679497, 0.10629995740788743, -0.26182765831787363, 0.07233103072510982, -0.2419551262740837, 0.03891204981187883, 0.1300357557178191], "leading_edge_weight": 0.4550212078250493, "TE_thickness": 0.0}, "e591": {"upper_weights": [0.280877289182234, 0.2811542621050619, 0.4304812680500498, 0.30675258033180147, 0.34355252812171055, 0.40891585151685983, 0.2658947044512201, 0.5326545083499774], "lower_weights": [-0.18552380028412413, -0.14677467052653792, -0.06543384144562228, 0.06405128398153795, -0.06257476246160411, 0.18491078632220764, 0.04989333289940447, 0.3425094507045908], "leading_edge_weight": 0.34428507958404264, "TE_thickness": 0.0}, "e593": {"upper_weights": [0.17891710831520968, 0.23528780612275452, 0.2536821944959325, 0.4729051049958042, -0.11728664039649976, 0.3320506653273247, 0.02211531207975079, 0.09762369243511299], "lower_weights": [-0.12909612559484887, -0.14236567928206964, 0.12130717161215751, -0.15543054996883074, 0.09938301043847947, -0.07197385270085511, 0.014516662733039408, -0.029013061451246543], "leading_edge_weight": 0.26238287686597445, "TE_thickness": 0.0}, "e598": {"upper_weights": [0.17871075165310985, 0.2391883355694246, 0.2784384287455621, 0.30989635935240073, 0.156436996082719, 0.19159082200198618, 0.13119980613367482, 0.07325292972816547], "lower_weights": [-0.12893915961954872, -0.1335611573392258, 0.10359304200504577, -0.1371265603089072, 0.07512815815451346, -0.06063083611728678, 0.0022822944811176707, -0.0382519699496382], "leading_edge_weight": 0.24364800010855325, "TE_thickness": 0.0}, "e625": {"upper_weights": [0.1696999230418845, 0.13727389129301204, 0.3506495825018017, 0.1339052058369186, 0.26203739139400045, 0.1484916497687571, 0.14576677974389693, 0.11728262855579644], "lower_weights": [-0.17795830997321027, -0.28781797694304545, 0.15057290470069212, -0.3671957596621668, 0.09609306704685928, -0.28484586549109703, -0.15934300881478017, -0.19165287761490943], "leading_edge_weight": 0.5722864514148297, "TE_thickness": 0.0}, "e635": {"upper_weights": [0.2003598176949851, 0.25578600901630416, 0.2691851539515086, 0.1324310140678671, 0.21082946458825097, 0.0829629652849646, 0.10496392663261418, 0.04821582816354558], "lower_weights": [-0.08624707758436047, -0.08469336554343923, -0.050125163005341075, -0.13586284481174352, -0.059573320520451674, -0.16263195057598628, -0.12960918313795078, -0.23671116705204476], "leading_edge_weight": 0.061017442324267895, "TE_thickness": 0.0}, "e636": {"upper_weights": [0.1633591362613247, 0.17198580657893917, 0.37640927795954215, 0.069084300770204, 0.28552632136615197, 0.07619500893439374, 0.13413970905226225, 0.08707770207938231], "lower_weights": [-0.126603609536508, -0.16884871839984786, 0.04594350938857065, -0.209010419424639, 0.016001962693011677, -0.18107142480912328, -0.10267981342701755, -0.1989633205223668], "leading_edge_weight": 0.3576559920448978, "TE_thickness": 0.0}, "e637": {"upper_weights": [0.12354958150364918, 0.053518037736201556, 0.5288397381832447, -0.04903592213872329, 0.4083368682947136, 0.037504793496744314, 0.17673412306404798, 0.12103669678019283], "lower_weights": [-0.17840289995278402, -0.2615322192729234, 0.13776338830019266, -0.2662485725349931, 0.07251070502438592, -0.18421527183327838, -0.08252977828270124, -0.158005038207105], "leading_edge_weight": 0.7175961639170301, "TE_thickness": 0.0}, "e638": {"upper_weights": [0.26911897670049356, 0.37337937621277273, 0.25774434578290945, 0.27270913389278295, 0.19464420502854887, 0.21681356362970322, 0.13752353358689232, 0.18799005893162277], "lower_weights": [-0.049295274755833306, 0.08585401147118646, -0.19450349670982395, 0.10895577931617784, -0.19792741119317997, 0.01982496902615839, -0.1385566525343515, -0.08848680509975206], "leading_edge_weight": -0.22019213106100904, "TE_thickness": 0.0}, "e639": {"upper_weights": [0.21701700563096096, 0.24250011988722786, 0.40629885339764416, 0.1730013961099393, 0.29452076331517035, 0.19684532299636773, 0.17035790775259582, 0.22650991690867386], "lower_weights": [-0.09991383997546197, -0.058418272678957384, -0.024950028193797883, -0.04390286320380304, -0.051666791135815925, -0.04329818175687591, -0.08926760551941118, -0.05699865718029757], "leading_edge_weight": 0.2166160518165122, "TE_thickness": 0.0}, "e657": {"upper_weights": [0.17018365471764482, 0.1585921428996998, 0.46060787856673835, 0.12259193117356976, 0.5606873122927515, 0.3171352714325644, 0.2822507762912824, 0.3141065724721817], "lower_weights": [-0.14634957535802975, -0.2838212731707058, 0.15926776642569324, -0.37955780415311474, 0.20957535513747808, -0.28862090253251127, 0.003634836841718239, 0.14476274064443218], "leading_edge_weight": 0.43705700749398, "TE_thickness": 0.0}, "e66": {"upper_weights": [0.17136161865593008, 0.2782906311974144, 0.12322015881177503, 0.35798460062341414, 0.12343608238521955, 0.36511229699842346, 0.20502363997826786, 0.3683327615712018], "lower_weights": [-0.07937352881335631, -0.05247755327350315, -0.04444946621112308, -0.02040024349198044, -0.022219621425191377, 0.053335801358969, 0.00020311538147658754, 0.1764495291177428], "leading_edge_weight": -0.07740698140605609, "TE_thickness": 0.0}, "e662": {"upper_weights": [0.1506045712151589, 0.19552073082892563, 0.3055267142291361, 0.35973751846787144, 0.1575938328146546, 0.6587855481751018, 0.13794066943999034, 0.4289412923602285], "lower_weights": [-0.14624059245665047, -0.22374311918403644, 0.08313761846100713, -0.3180480662408972, 0.18162147779787408, -0.37377052633559815, 0.0405174225871984, 0.17539040911160775], "leading_edge_weight": 0.3555789087132343, "TE_thickness": 0.0}, "e668": {"upper_weights": [0.16785727860810315, 0.25756170967209896, 0.20253833600057675, 0.4371152619378199, 0.05184021501211023, 0.6761205146628413, 0.09835358359629853, 0.3703686073943246], "lower_weights": [-0.11058507232198925, -0.17608075281375735, 0.043037085127323585, -0.2580898204696353, 0.13245230159175558, -0.26223582879806423, 0.03617627719059472, 0.14182036580018675], "leading_edge_weight": 0.14390193781090005, "TE_thickness": 0.0}, "e67": {"upper_weights": [0.13707364094950303, 0.21090143773992778, 0.20147165944697407, 0.3051558039644751, 0.18641135134320147, 0.3366514666652591, 0.23213770785934532, 0.3409453663877961], "lower_weights": [-0.12839587025370533, -0.17117729237588397, 0.026745040969002237, -0.15867086165597066, 0.03237012240658005, -0.036289648316647265, -0.009030584645854994, 0.13230488094777268], "leading_edge_weight": 0.17810856398727382, "TE_thickness": 0.0}, "e68": {"upper_weights": [0.14707086764692862, 0.230459250007549, 0.20524372457504517, 0.32607607574105074, 0.19783953083093508, 0.34138808146633753, 0.2471243531309361, 0.31573047185464553], "lower_weights": [-0.1372375734215975, -0.18999614962692585, 0.0011077404482629366, -0.19345968646130532, 0.011597543089315147, -0.07988049295075117, -0.03839478482369561, 0.09233672438821763], "leading_edge_weight": 0.15514329435197993, "TE_thickness": 0.0}, "e715": {"upper_weights": [0.16852836306025765, 0.30944542776668865, 0.11353239092709157, 0.5467256141775253, 0.016719506847971622, 0.28199036333990757, 0.10871434336177992, 0.1054817554529652], "lower_weights": [-0.12429764160218719, -0.24157603968192992, 0.06458216581722985, -0.46371317443543697, 0.2769505314942237, -0.24910404850995324, 0.061658914107841474, -0.0644663758443305], "leading_edge_weight": 0.08535426650834159, "TE_thickness": 0.0}, "e793": {"upper_weights": [0.2471338439386656, 0.3312751418566108, 0.29222717076165605, 0.32851743204709455, 0.23610419178785066, 0.32958718824086974, 0.21306838259417887, 0.34671284062044583], "lower_weights": [-0.1365146315703052, -0.15692972549454232, -0.10047155213909012, -0.07456766339643262, -0.0548463823938879, 0.015699756164482916, 0.0006004458069655437, 0.13618359441033542], "leading_edge_weight": 0.039565895999467506, "TE_thickness": 0.0}, "e855": {"upper_weights": [0.12288032874536058, 0.1452845800242165, 0.362443348788235, 0.32942787577185784, 0.2040764078494945, 0.37978332735811837, 0.18012302074612047, 0.4335940113712387], "lower_weights": [-0.18258860230231735, -0.3426667409089863, 0.13419796486982632, -0.45314086908412265, 0.23088184401734563, -0.19886861430896055, 0.06404249830741669, 0.08340297994337517], "leading_edge_weight": 0.5302510551156081, "TE_thickness": 0.0}, "ec863914": {"upper_weights": [0.2649845616793654, 0.5773687834391865, -0.1287740920957714, 0.6761954535182609, 0.020082618877169108, 0.42199932409428365, 0.4619348555007661, 0.41553863975925986], "lower_weights": [-0.021096585318159385, -0.005381541029646775, -0.23564788639177559, 0.13282831216871993, -0.339148633893208, 0.07446630212944935, 0.04162676848564191, 0.3960124830518853], "leading_edge_weight": -0.5962198804948287, "TE_thickness": 0.0}, "eiffel-400": {"upper_weights": [0.1415259258908849, 0.25453997554662916, 0.2568191806131356, 0.27913959835634683, 0.26032069772298316, 0.2968904458456381, 0.2667072762942881, 0.30773692508570993], "lower_weights": [-0.19775111817943491, -0.19354445255209854, -0.13723291247406968, -0.016738007785719794, -0.14821851678613945, 0.08066124346314432, -0.009528399759725177, 0.05111444649053939], "leading_edge_weight": 0.24806025704243592, "TE_thickness": 0.00023963023022648377}, "eiffel371": {"upper_weights": [0.21434931296619758, 0.3144064575643795, 0.13318606677657618, 0.5199895197325092, -0.012664855571572755, 0.42576996671248674, 0.17797766120042652, 0.284748715478146], "lower_weights": [-0.10423070622957081, -0.2195808341954433, 0.1055730764192779, -0.42323946211480845, 0.2526314344094127, -0.35231378439945193, 0.03752469199759645, -0.16364550347979812], "leading_edge_weight": 0.24320426745679952, "TE_thickness": 0.0}, "eiffel430": {"upper_weights": [0.1813601641933235, 0.07166803412733602, 0.38475182735678876, 0.08667487962437985, 0.4344361239627172, 0.06031220842204324, 0.3334015627268439, 0.17049356701591256], "lower_weights": [-0.2026741183275505, -0.26042828279000907, 0.37924960917926115, -0.4407147394842656, 0.38888601774879844, -0.27039953286789675, 0.10416104127766523, -0.17448601493534016], "leading_edge_weight": 0.5001125802298959, "TE_thickness": 3.885189470120979e-05}, "esa40": {"upper_weights": [0.21410027293369788, 0.17238391018755062, 0.08117846428312503, 0.38031182580049827, -0.25612462272846376, 0.5459479377269343, -0.32707160044019845, 0.07460684356147025], "lower_weights": [-0.11969680350306905, -0.18892224853363837, 0.022298562922547033, -0.22596450079213692, -0.10391485687334426, -0.04697435058052799, -0.23912669037112674, -0.11039751283767987], "leading_edge_weight": 0.2949426249247635, "TE_thickness": 0.008707330167424072}, "fad13": {"upper_weights": [0.12778400064120993, 0.15156964474603796, 0.1893357098361683, 0.16559191971027434, 0.13626729148655928, 0.16928815574591996, 0.11840041582052355, 0.150105187025213], "lower_weights": [-0.12355572634735694, -0.14081465528122297, 0.0005659326897156253, -0.13780322209206985, 0.021364037422324064, -0.08719285864265755, -0.023996460722118702, -0.007633889633751197], "leading_edge_weight": 0.19983956522891766, "TE_thickness": 6.820417988433224e-05}, "fad14": {"upper_weights": [0.12826851588102872, 0.16888507131156755, 0.1745927010262043, 0.21563388275383638, 0.11552899744939475, 0.21921567239468895, 0.12281347406576103, 0.18826298722016904], "lower_weights": [-0.13002494227123212, -0.15685319153356597, -0.006474021590123807, -0.142636857373728, 0.001552177882785711, -0.06820949357073634, -0.03920488378626586, 0.021703456975607306], "leading_edge_weight": 0.19655381363991603, "TE_thickness": 0.0}, "fad21": {"upper_weights": [0.15612684236440408, 0.18687717646675842, 0.2488551896677333, 0.2636882761813863, 0.139046205246046, 0.23999095828797062, 0.16687481593358794, 0.12948995949053016], "lower_weights": [-0.12683492915447792, -0.13896634362099478, 0.0644549752688694, -0.09448504756203303, 0.01065079365369673, -0.039209251029323884, -0.023079454953601183, -0.061771741004236956], "leading_edge_weight": 0.3794746807669197, "TE_thickness": 0.0}, "fad23": {"upper_weights": [0.1940283134289775, 0.2113714136145785, 0.2229261128446629, 0.14872764997266397, 0.2044521466632019, 0.1058723746875472, 0.09044437801806178, 0.033587473398478465], "lower_weights": [-0.10366266961098543, -0.06945591452367819, -0.05499148742235053, -0.05224715575125623, -0.0661936195259982, -0.04490676083638927, -0.14291583946142108, -0.09376443033179488], "leading_edge_weight": 0.09393943903535967, "TE_thickness": 0.00041023844257004176}, "fad24": {"upper_weights": [0.15791417438824176, 0.1491220581546091, 0.2997365791705327, 0.1596402342302157, 0.2541158429819517, 0.19609555301497858, 0.22186600063651007, 0.21385674477271124], "lower_weights": [-0.1869416889601052, -0.1838551813459422, 0.00280226101507984, -0.1515055373125398, -0.006392973081424717, -0.09897561321780803, -0.040971482758916676, -0.06111679841551899], "leading_edge_weight": 0.32789244229002845, "TE_thickness": 0.0018504870789857286}, "fg1": {"upper_weights": [0.10787317689474264, -0.004367829961911845, 0.3421591273641258, 0.10760976124571417, 0.1280880093152985, 0.3701670520189735, 0.057759139450011446, 0.3545420874843459], "lower_weights": [-0.1784585064748403, -0.12667676289160035, 0.015915027787423857, -0.04061597968239929, 0.012124816002799941, -0.09485661909740031, 0.06519991846670417, -0.14061787908446713], "leading_edge_weight": 0.6193771939582446, "TE_thickness": 0.00014183236376923071}, "fg3": {"upper_weights": [0.11755177288338305, 0.23037927341020742, 0.29439232167376794, 0.1801760275326936, 0.19817136769553248, 0.3936065447479037, 0.10200250848491307, 0.3891718471023945], "lower_weights": [-0.11122527801572993, -0.08416231150811349, 0.026574411537312506, -0.08400955986580991, 0.10101816690873426, -0.1948333285012391, 0.1512488673604429, -0.2264584254934193], "leading_edge_weight": 0.3832725286052843, "TE_thickness": 0.0001784444524462744}, "fx38153": {"upper_weights": [0.2102177483003389, 0.32064015011019525, 0.10974129514940402, 0.4103589671468506, 0.14096426057981096, 0.3640575854297407, 0.4018209101122748, 0.36053978292684236], "lower_weights": [-0.07753311748688717, -0.09699998054504894, -0.15528682755351034, -0.16428556017377893, -0.12120240217603176, -0.2639430043132314, -0.1986282797475036, 0.23613654514253063], "leading_edge_weight": -0.1450064764269316, "TE_thickness": 0.0}, "fx60100": {"upper_weights": [0.1851074371391122, 0.2294219396124466, 0.1574545951575204, 0.27746126983619923, 0.1313169892354555, 0.282505579108758, 0.18698012120769641, 0.2095903642848644], "lower_weights": [-0.06803429966800158, -0.0855922490879623, -0.0413695015692931, -0.09034614765645968, 0.05299600919122969, 0.028618089742614917, 0.09174107618100341, 0.15254373476855104], "leading_edge_weight": -0.049846906384422116, "TE_thickness": 0.0}, "fx601001": {"upper_weights": [0.1442288928354299, 0.2751580673179185, 0.06375383568243213, 0.4001022630250977, 0.04020489938004546, 0.3192116224525279, 0.16560190436344469, 0.2214281505436372], "lower_weights": [-0.08122009396874981, -0.10950563931806112, 0.024401695495882336, -0.2388692926370845, 0.21043175722029242, -0.06693932879763043, 0.15541486904698285, 0.12349624710886195], "leading_edge_weight": 0.01345481987120297, "TE_thickness": 0.0}, "fx60100sm": {"upper_weights": [0.13738979994114967, 0.10737746384316826, 0.27803366173500543, 0.14895955188148485, 0.2393253258071874, 0.20506582549397356, 0.22168034516436788, 0.19805922303028667], "lower_weights": [-0.11633681907134477, -0.20418103740571253, 0.06977909334571226, -0.20329856825674103, 0.15302309092883126, -0.05166200982061982, 0.12827870956034024, 0.1407289091498049], "leading_edge_weight": 0.3060544951566684, "TE_thickness": 0.0}, "fx60126": {"upper_weights": [0.2180240125692237, 0.27031662543199697, 0.1835589227023374, 0.32474226722442, 0.14223590800345853, 0.31477302444513633, 0.19986089697708584, 0.2167971447002082], "lower_weights": [-0.10095085943955967, -0.12648678432896165, -0.06747411709506174, -0.1376266161112566, 0.042076317309700115, -0.0036485187878788072, 0.07885969316566088, 0.14533712694348547], "leading_edge_weight": -0.04984703675173352, "TE_thickness": 0.0}, "fx601261": {"upper_weights": [0.18256774277281723, 0.1597647449215064, 0.29661316455986503, 0.27013947159269724, 0.1600131614680595, 0.3956695539864808, 0.09378858090704184, 0.3368633962104302], "lower_weights": [-0.13095657861169924, -0.25896708970197474, 0.09854437952066061, -0.2860463652531807, 0.18729671881153043, -0.06076574450472102, 0.09635162143439567, 0.16868128741068605], "leading_edge_weight": 0.32271510351473104, "TE_thickness": 0.0}, "fx60157": {"upper_weights": [0.26317570263412426, 0.45748365901280763, -0.0020508923512989365, 0.561101499914602, -0.0007474617269877348, 0.5202921783247892, 0.23099183434092618, 0.4094747777657178], "lower_weights": [-0.06909821637430437, 0.057321894740070545, -0.4146129696315291, 0.21961532854432864, -0.5432085319727628, 0.1001968002585289, -0.16666068348047924, 0.26868559596789887], "leading_edge_weight": -0.4571790216501343, "TE_thickness": 0.0}, "fx61147": {"upper_weights": [0.2223266844718019, 0.4392478338377027, 0.052483378297022806, 0.6087925514947121, -0.12159233468224445, 0.5947801417297307, 0.03292002615568532, 0.4580268726800294], "lower_weights": [-0.059211192673221294, 0.017365954038059545, -0.29854584197448625, 0.16684415280840734, -0.4458921420572373, 0.1516991022191013, -0.05251821705668532, 0.25481694374997854], "leading_edge_weight": -0.2901237222418608, "TE_thickness": 0.00015188797386897016}, "fx62k153": {"upper_weights": [0.22422791667991232, 0.3988130401140583, 0.08336012344614696, 0.5727739231997916, 0.005261638592225402, 0.7289472598244743, 0.07066543657517602, 0.4862712328200309], "lower_weights": [-0.05973720440558139, 0.044192072994210824, -0.31018341479813205, 0.21593948710790908, -0.5080437261757147, 0.22237786857027847, -0.10751749131947319, 0.3375767136678489], "leading_edge_weight": -0.30095546435786125, "TE_thickness": 0.0}, "fx63100": {"upper_weights": [0.2371110215232272, 0.3372295603396251, 0.10016115685720858, 0.3856107096817893, 0.08504498285745932, 0.40207954574519456, 0.10769580184750459, 0.35963497712292875], "lower_weights": [-0.05861432444793092, 0.14563485862594788, -0.31685152777654574, 0.338214754965367, -0.34920430046123907, 0.343263485358357, -0.04223629287347652, 0.31426877134685893], "leading_edge_weight": -0.35021581898949855, "TE_thickness": 1.708012598818814e-05}, "fx63110": {"upper_weights": [0.2536632604481639, 0.3503358798304761, 0.12069235716754081, 0.3888898503399536, 0.10889661836314865, 0.40428634867455177, 0.11655970817719896, 0.36178067091902855], "lower_weights": [-0.07383707373792776, 0.13860801881163062, -0.3430951464255661, 0.33981776678763936, -0.3764709036835924, 0.342900491788687, -0.05183357274600942, 0.3123279290011603], "leading_edge_weight": -0.3584958799333446, "TE_thickness": 1.9772855495152732e-05}, "fx63120": {"upper_weights": [0.2752945173209407, 0.35424484799505696, 0.1858309019177794, 0.3830682673837685, 0.1765305149724685, 0.4335703831502442, 0.1492984064194002, 0.4281532341131474], "lower_weights": [-0.0688412193276124, 0.11208244933196113, -0.2976399709182275, 0.2851548189097913, -0.28066536011260734, 0.30581037518858517, 0.0006288316193702732, 0.362238402035394], "leading_edge_weight": -0.30447265794871253, "TE_thickness": 5.849404966197131e-06}, "fx63137": {"upper_weights": [0.2909322539908811, 0.3397246617474996, 0.26517426202007816, 0.4014766164263757, 0.21632200423545936, 0.4958870622503343, 0.16340949243932865, 0.4943673275034086], "lower_weights": [-0.09076752176417151, 0.01410417261920758, -0.153115908302438, 0.07246377584007617, -0.10255130641749985, 0.2251002041167184, 0.045496442660141904, 0.4121213117790528], "leading_edge_weight": -0.14580262569904076, "TE_thickness": 0.000311276120047893}, "fx63143": {"upper_weights": [0.1870355237918342, 0.34891050568741033, 0.13561338884027507, 0.49858589525831326, -0.00056338547448315, 0.4180408194794361, 0.05222093837247734, 0.30637656130165236], "lower_weights": [-0.08965614782111793, -0.0483046975856429, -0.20685433746016008, 0.06576056741388724, -0.36413152345715466, 0.19982628808663505, -0.4500381408754191, 0.20410782378564488], "leading_edge_weight": -0.08272659186247125, "TE_thickness": 0.0}, "fx63145": {"upper_weights": [0.24456968570765256, 0.41162422028825024, 0.08169725769389236, 0.6294597249584457, -0.09302419029173341, 0.517615875216998, 0.05706143233876074, 0.39411469937737914], "lower_weights": [-0.06265474686053872, -0.07277538168697509, -0.13899895456741884, 0.01642534223735683, -0.2396674093565054, 0.2038559720714855, -0.08049060199646342, 0.298960063649764], "leading_edge_weight": -0.10361981001043984, "TE_thickness": 0.0005502079155000314}, "fx63147": {"upper_weights": [0.19371306951380363, 0.33082502666454777, 0.17714698422325664, 0.44184846244661286, 0.07612940546659322, 0.43227007547409835, 0.1252492957875105, 0.44104121062977253], "lower_weights": [-0.08193876421685652, -0.10046385817196102, -0.10328345528063132, -0.13152493922537964, -0.1048117823329358, -0.08719523954593586, -0.24259115269843395, 0.3796143728217499], "leading_edge_weight": -0.03722634596865681, "TE_thickness": 0.0}, "fx63158": {"upper_weights": [0.274958129725152, 0.47060068866123145, 0.06187254634190339, 0.6622296337249095, -0.06667738323446298, 0.5529248473947163, 0.08100694185170604, 0.4575665877941666], "lower_weights": [-0.0386522687125514, 0.0799903167191642, -0.3955971800070841, 0.328433849384678, -0.6439977236276081, 0.3010509865489547, -0.1290970911433248, 0.35503464154733877], "leading_edge_weight": -0.4289629256424411, "TE_thickness": 0.0004907673793179321}, "fx67k150": {"upper_weights": [0.14763340302105699, 0.28632091038620816, 0.2543318823551684, 0.3941511065386513, 0.28988004484635504, 0.5371654407347232, 0.0807704945054553, 0.2643599113315324], "lower_weights": [-0.07015217310123267, -0.14426376025945012, 0.04252335748371461, -0.23601304024879155, 0.12596804500697756, -0.26215837719068663, 0.053231841462434926, 0.0501001547649163], "leading_edge_weight": 0.1319560710776036, "TE_thickness": 0.0}, "fx72150a": {"upper_weights": [0.14562717155764118, 0.21887894406543879, 0.44481927445196007, 0.4461153455005064, 0.4226215637490613, 0.42262706609134637, 0.3669455210559373, 0.34040295649333396], "lower_weights": [-0.18191774199703517, -0.14802304774308972, 0.10436504658636321, -0.11149497632043949, 0.13557816994043073, 0.13780942666436818, 0.21786957269432317, 0.24408424307132545], "leading_edge_weight": 0.5909926108841322, "TE_thickness": 2.032739864333638e-05}, "fx72150b": {"upper_weights": [0.15945765855862784, 0.2757593887392678, 0.4344858864579866, 0.5366171177772219, 0.4068991191553269, 0.5166340457379439, 0.3892815264854024, 0.3838625465633047], "lower_weights": [-0.16964716447386824, -0.09694817125027985, 0.1078837442520243, -0.04385406292523799, 0.14817414901363854, 0.20802175330787456, 0.25327414912264895, 0.3045213476835456], "leading_edge_weight": 0.5490257265812267, "TE_thickness": 2.455302424793054e-05}, "fx73cl1152": {"upper_weights": [0.22243451891192176, 0.2915615137896072, 0.47500614780553396, 0.2779421559523945, 0.22814373439582197, 0.3368134457968018, 0.14079502758161788, 0.2967192451518952], "lower_weights": [-0.25980423351856924, -0.10267875669627696, -0.035087742322885376, 0.03880378569316019, -0.02809864807864847, 0.07713302038317071, 0.04181313732582339, 0.10452840940067126], "leading_edge_weight": 0.36697463845124717, "TE_thickness": 0.0007604729272892423}, "fx73cl2152": {"upper_weights": [0.2448552253460687, 0.23957549447265, 0.4940505865800776, 0.3223644462440121, 0.16512951384208385, 0.5500760866612531, 0.11337163671861143, 0.6464921324964156], "lower_weights": [-0.2349505118912607, -0.15857587980612273, -0.010544871412248896, 0.07681677240085029, -0.08510584195578635, 0.28614197930774793, 0.01628501311610706, 0.45423123808108895], "leading_edge_weight": 0.4174657780817321, "TE_thickness": 0.0007637299630823764}, "fx73cl3152": {"upper_weights": [0.2376975807550961, 0.2694603160333894, 0.5293956637850141, 0.35691408122436813, 0.22771775301323366, 0.5235625387733353, 0.2986993057913093, 0.31977256934269327], "lower_weights": [-0.2491322978666465, -0.11940893446448295, 0.014554537563420733, 0.12040753160338714, -0.02830480187281742, 0.2620128180051423, 0.20095929814965693, 0.12815069514872543], "leading_edge_weight": 0.48197136870616863, "TE_thickness": 0.0007662927263642401}, "fx74cl5140": {"upper_weights": [0.23697082295395042, 0.4178406687184127, 0.3417278023121294, 0.7908709109880249, -0.056928845875541575, 0.762528524219644, 0.13109068339454416, 0.6035398205604733], "lower_weights": [-0.10435988632563765, 0.06103562452464309, -0.03972188712149552, 0.3270643069827013, -0.20157460114930492, 0.3622464947162981, 0.16305640682874162, 0.4437991655372568], "leading_edge_weight": 0.2677953109295295, "TE_thickness": 1.8119320498243905e-05}, "fx74cl6140": {"upper_weights": [0.20614400462554686, 0.3054125805764175, 0.36008549696026904, 0.5932040635606095, -0.007795377067620187, 0.5310740575275357, 0.11008134294888074, 0.356754634955757], "lower_weights": [-0.14017924323544254, -0.038792639692573724, -0.0442101264047589, 0.16034844649894311, -0.1831788275986461, 0.15446472150761445, 0.1278473003732609, 0.20511976581966093], "leading_edge_weight": 0.3384840823248364, "TE_thickness": 8.631731947819778e-05}, "fx74modsm": {"upper_weights": [0.14435321329527645, 0.2176697149562304, 0.5566896015765577, 0.3925922766093987, 0.3517674699661568, 0.4795213814444844, 0.26328360576669685, 0.5818799261192249], "lower_weights": [-0.16467281246270277, -0.17292317042199995, 0.2517833576974466, -0.07520214034032968, 0.3009740592121745, 0.06641279803977498, 0.3058667365568139, 0.44071499546832094], "leading_edge_weight": 0.8731618098346927, "TE_thickness": 0.000966942590604254}, "fx75141": {"upper_weights": [0.17219071619703827, 0.24700086896867213, 0.19052925666567033, 0.426950950649174, 0.032860158230915815, 0.6506649259122629, -0.04153959971932764, 0.3852092407300272], "lower_weights": [-0.15537751700648642, -0.09965181722653246, -0.15317068825049568, -0.015295625207488596, -0.20676966109031572, -0.0032952223570341535, 0.04054958912041199, 0.14933878537815043], "leading_edge_weight": 0.07744760200435806, "TE_thickness": 0.0007751555728953464}, "fx76mp120": {"upper_weights": [0.16219128128760782, 0.28201579214779726, 0.3034056810568239, 0.4651506434145573, 0.18907867848406723, 0.6957234349533835, 0.14318218385454473, 0.47828327118556674], "lower_weights": [-0.1527093726576688, -0.08357692568293995, 0.11673852073501242, -0.0557049906823406, 0.16534571965236977, -0.006119746702698862, 0.15656504268212518, 0.2713143070457376], "leading_edge_weight": 0.3545551702647981, "TE_thickness": 0.0007019404631135273}, "fx76mp140": {"upper_weights": [0.2128824431074132, 0.36855830977660436, 0.24766381831076628, 0.5501243345296783, 0.13885335956660688, 0.7564815422985052, 0.12135936828893051, 0.45994869020010437], "lower_weights": [-0.16035722108701794, -0.03484084585363923, -0.01599874395026548, 0.012198596159625872, 0.037006032772845865, 0.0007089904596872703, 0.09908063954687521, 0.2502916599927364], "leading_edge_weight": 0.13219101253757232, "TE_thickness": 0.0009741196733706061}, "fx77w121": {"upper_weights": [0.1429059426699022, 0.2650599756792036, 0.23531587583852653, 0.49020254470863667, -0.06239086094774793, 0.3376518248026568, 0.0783328503051807, 0.10585347715905861], "lower_weights": [-0.11104382727928146, -0.12728635892405443, 0.06912685456018641, -0.16049163880234754, 0.1070500837133421, -0.15636841001057786, 0.027838299183376748, -0.17654467441307223], "leading_edge_weight": 0.29649472595396814, "TE_thickness": 0.0007145699216955136}, "fx77w153": {"upper_weights": [0.16934021955178008, 0.18452240033843811, 0.5367602729383619, 0.10666646610734844, 0.3359553100090949, 0.10198686271628961, 0.2556050256275681, 0.11859827593104752], "lower_weights": [-0.20488664418360922, -0.2408370163716356, 0.06775153208681335, -0.21206173975961654, 0.03525432281854326, -0.16227422271479897, -0.034338884814402344, -0.1912045128870284], "leading_edge_weight": 0.5922415199965151, "TE_thickness": 0.001182578184366007}, "fx79w151a": {"upper_weights": [0.15080536462262484, 0.2944949733708335, 0.2724705757215369, 0.36091261882143183, 0.24709115721147637, 0.2814914396347792, 0.27112474903238865, 0.11629561506333591], "lower_weights": [-0.15495019708421215, -0.2159462923966935, 0.07774831369387769, -0.32139796917993096, 0.13653805905244057, -0.2545489776237217, 0.010284170323828811, -0.15777820776323778], "leading_edge_weight": 0.15523177637505942, "TE_thickness": 0.0007446411906198448}, "fx83w108": {"upper_weights": [0.16789334048859123, 0.1836853223961762, 0.23823841365564713, 0.2354284577830778, 0.26225423850783586, 0.3238846388281213, 0.19435074872355532, 0.328470990630683], "lower_weights": [-0.13803318054329008, -0.05426932607898251, -0.1386218080296296, 0.055815565463796984, -0.05470355741813152, 0.05263048607999763, 0.03605615439603091, 0.10404463018813141], "leading_edge_weight": 0.06188209820448611, "TE_thickness": 0.0009439042579170908}, "fx84w127": {"upper_weights": [0.15571870855336875, 0.21677984779227882, 0.2846583191431733, 0.25343931197642, 0.3078929849919327, 0.23229439474560531, 0.2664588091343971, 0.12478039404445425], "lower_weights": [-0.149005177687232, -0.10266629567067913, -0.05416268855485348, -0.06643200847711259, -0.07768044084151397, -0.0351915979017782, -0.06800472127724545, 0.05502868603299627], "leading_edge_weight": 0.14691560219506639, "TE_thickness": 0.0}, "fx84w150": {"upper_weights": [0.18064816317483545, 0.25052154231124824, 0.3246838266081431, 0.29453340219662666, 0.3596937667994966, 0.27683946449617863, 0.320969399291421, 0.1542850695322222], "lower_weights": [-0.169370936185826, -0.11873863142240935, -0.07326371784349231, -0.08077095163999569, -0.10264781307674956, -0.04527797088564778, -0.08291556463314856, 0.07007287099517608], "leading_edge_weight": 0.15206634325630008, "TE_thickness": 0.0}, "fxm2": {"upper_weights": [0.2495033042163097, 0.19546222539300084, 0.24485983559434235, 0.19074581235893176, 0.19726318544297058, 0.18957730030911746, 0.1966638975360494, 0.24822262151201321], "lower_weights": [-0.1255539196366356, 0.06925292332689507, -0.1489214941923239, 0.3016080968781791, -0.24813273946028946, 0.2806645898868903, -0.06464412110313215, 0.19308472723681103], "leading_edge_weight": 0.2917117530757547, "TE_thickness": 4.6312119480536514e-05}, "fxs21158": {"upper_weights": [0.14775001786037575, 0.2642461096517408, 0.2618472540389254, 0.5211807301089446, -0.05977895264438268, 0.4688463438683317, 0.05472343519846904, 0.2650181278917386], "lower_weights": [-0.12639812479671134, -0.22336816589047384, 0.06768786301175966, -0.4564743477044626, 0.26655575964088474, -0.16395410000989766, 0.08431240557852801, 0.08347897080964223], "leading_edge_weight": 0.24928775611527648, "TE_thickness": 0.0002038406084190908}, "giiil": {"upper_weights": [0.16095836955715007, 0.0037252578468652555, 0.34404376888691246, -0.06007995491425369, 0.3109405583601003, 0.04169857297500163, 0.1708474255397305, 0.1041050790508246], "lower_weights": [-0.15218901864760673, -0.01915949417322201, -0.18263086563949535, 0.0925004180223395, -0.2549094477892563, 0.02134159196649464, -0.11866658947958761, -0.052608235593796016], "leading_edge_weight": 0.24308479561185808, "TE_thickness": 0.00041069037554778846}, "giiim": {"upper_weights": [0.1830761091141951, 0.01446262332133121, 0.3232389444514369, 0.013168783777151867, 0.21248703596002394, 0.12099534806481116, 0.10932709462774408, 0.10513917509310883], "lower_weights": [-0.18119981078018665, 0.0628796850002512, -0.290301295105318, 0.224664007281787, -0.3509561926504445, 0.09402945492052436, -0.14808831278446608, -0.03566915034129245], "leading_edge_weight": 0.2524244710310537, "TE_thickness": 0.00042586396510829066}, "giiin": {"upper_weights": [0.19811342873839727, 0.04357519804975444, 0.2809319674034677, 0.0898161313723362, 0.12766482316415742, 0.1822979904952305, 0.07093029424929635, 0.08383662183947461], "lower_weights": [-0.1982421525892936, 0.13619864671876197, -0.3729097805485225, 0.3175180789750839, -0.4122668482960055, 0.13734670712946556, -0.16362210241530642, -0.025653989443195472], "leading_edge_weight": 0.2175016403556514, "TE_thickness": 0.00046515473472454315}, "glennmartin2": {"upper_weights": [0.15919229603686558, 0.34275558129286193, 0.2646561662031835, 0.41057691453862705, 0.21629657875124417, 0.40875478386069247, 0.2883234055740346, 0.3846652430908404], "lower_weights": [-0.15801054890075752, -0.2694699673598333, 0.2224099602324488, -0.1626950394224061, 0.14801535826608667, -0.21419917304648883, 0.062195438219796895, -0.16633661795545845], "leading_edge_weight": 0.5922184501288034, "TE_thickness": 1.8183001546140916e-05}, "glennmartin3": {"upper_weights": [0.2648464508572305, 0.3540773301609208, 0.17651660254399346, 0.46120243749259476, 0.053614909535197104, 0.6441769515619304, 0.0745021284430087, 0.7583533734020002], "lower_weights": [-0.10929485067657105, -0.15992653594840672, 0.14510291254457225, -0.4071796234849795, 0.4251591439669952, -0.5688877438474876, 0.31679751449504945, -0.4989111766592446], "leading_edge_weight": 0.19288285264444413, "TE_thickness": 6.315700171867904e-05}, "glennmartin4": {"upper_weights": [0.2520430104859479, 0.8143116679667866, -0.23157956102823482, 1.1060613389283873, -0.5085448597529444, 1.1844905943674202, -0.23736259953606892, 1.2350308044908118], "lower_weights": [-0.0503414540198707, 0.20790914702016605, -0.3196842981578877, 0.22442868749890257, -0.2274051231843678, 0.011613815797354706, -0.012945686864034219, -0.11106963414633578], "leading_edge_weight": -0.5597189789046494, "TE_thickness": 0.00010911422574240467}, "goe12k": {"upper_weights": [0.17007562848133972, 0.12626022075387883, 0.3029411468949984, 0.21752161540829712, 0.16584515730218266, 0.569450020431265, 0.17247129277279025, 0.5932700533253861], "lower_weights": [-0.1604328900413438, -0.07683755837560607, 0.007713430831340664, -0.1469644638527504, 0.11081854176901296, -0.19925467810694986, 0.09683057410736175, -0.16402458131287084], "leading_edge_weight": 0.1637930419403001, "TE_thickness": 0.00011152499455134906}, "goe134": {"upper_weights": [0.13297094404341453, 0.034370625657487844, 0.4840538092807343, -0.109075916921693, 0.5534604580080178, -0.0752623757644216, 0.3660840720689545, 0.1677798035803774], "lower_weights": [-0.13550086050833107, -0.14655646945790918, 0.07487408263145036, -0.06975476326502764, 0.01734209597165385, -0.02007948181379663, -0.00787166362789952, -0.00821434975949793], "leading_edge_weight": 0.5849118321888347, "TE_thickness": 0.009060095348978336}, "goe137": {"upper_weights": [0.10563532950849114, 0.11404199757708255, 0.3124813769756658, 0.16578902394417935, 0.28463701802287006, 0.1237491384690668, 0.262902649493012, 0.16124390077015796], "lower_weights": [-0.13154807231487844, -0.20418582679965513, 0.26761784628804675, -0.27314535413479063, 0.26165731126636754, -0.14229510689463107, 0.09861736294013017, -0.012977315326292194], "leading_edge_weight": 0.5372178830402935, "TE_thickness": 0.0028970069718517164}, "goe14": {"upper_weights": [0.255191817245933, 0.34422745113283076, 0.27076775518818685, 0.35901870359301924, 0.18867050439521288, 0.3714476888992591, 0.19090563815123565, 0.2437576181029183], "lower_weights": [-0.22595537439695432, 0.3363040020291541, -0.31788979429050657, 0.45948952469553184, -0.3206923726292426, 0.28759128124011574, -0.07299924182643538, 0.06719887501123525], "leading_edge_weight": 0.18395397374630582, "TE_thickness": 0.0013063347683021464}, "goe140": {"upper_weights": [0.09725053817845508, 0.11505980209596987, 0.44764284950730426, 0.016573416706269238, 0.40403114989247874, 0.11328071688592434, 0.2374930103270139, 0.20244833299268838], "lower_weights": [-0.18230968668799044, -0.060452810911692245, 0.09587462633027775, -0.04268256549610715, 0.09980360466676795, 0.005198904377542654, 0.05997115066445684, 0.04725669275318314], "leading_edge_weight": 0.6722850570777795, "TE_thickness": 0.005813408862334907}, "goe164": {"upper_weights": [0.17290454416853018, 0.25093389663022575, 0.31700803763737884, 0.15318025199716626, 0.41852394986309616, 0.14345171458155617, 0.3050567527226879, 0.38470108423377064], "lower_weights": [-0.07888168508923, -0.15779814645286133, 0.2549456969397505, -0.015115228438603986, 0.11093587318369896, 0.21465080131002678, 0.027226303141832612, 0.13785536615829477], "leading_edge_weight": 0.24288491098573675, "TE_thickness": 0.0010619580741978748}, "goe165": {"upper_weights": [0.1694736242180238, 0.3997458113077212, 0.1572799776775221, 0.3106223893893334, 0.28758880391358627, 0.22172856740913455, 0.25066603503900314, 0.41565361934074424], "lower_weights": [-0.060868400838615076, -0.12288200717796696, 0.01464287490072296, -0.25266712470120717, 0.5757066525994189, -0.2774230371984909, 0.3360093314931773, 0.08028076311182916], "leading_edge_weight": 0.020045993242641325, "TE_thickness": 0.0012361963803019362}, "goe167": {"upper_weights": [0.1343771814447503, 0.1810475839897469, 0.305244146054743, 0.25640088570549774, 0.20091971592603872, 0.18922936363119006, 0.2207341881504101, 0.16587936053376306], "lower_weights": [-0.13718045218442945, 0.01036915673159547, -0.07314159347231006, 0.06145216837929658, -0.021244402306101234, -0.02414280503760419, 0.042698202208919796, 0.0006598198187830864], "leading_edge_weight": 0.2788474301628636, "TE_thickness": 0.00902178844334615}, "goe174": {"upper_weights": [0.15981776007043064, 0.25407710577654735, 0.25941852215013306, 0.2616032089896343, 0.1790113832458614, 0.3210490506793703, 0.12692502182082815, 0.31892031469250254], "lower_weights": [-0.09810345929313158, -0.014729442732356421, 0.028092592164804357, 0.11236760442962121, 0.016561713783887686, 0.041294245075452964, 0.09301042683717106, 0.028147018728242164], "leading_edge_weight": 0.23014488132489982, "TE_thickness": 0.0029463832644753382}, "goe176": {"upper_weights": [0.18371502358367403, 0.2964875564529158, 0.23428294934814886, 0.2799218906251299, 0.21243267841387078, 0.32269005956493646, 0.128330683144455, 0.3674279280534946], "lower_weights": [-0.07199008965992967, -0.15007530012239628, 0.1313640835040176, -0.04307608389673775, 0.16774200089614238, -0.02010315960956468, 0.1205302852488323, 0.07708186014160537], "leading_edge_weight": 0.13586381427594982, "TE_thickness": 0.0023043437281984216}, "goe180": {"upper_weights": [0.14654934039484846, 0.22772791826104563, 0.13807739802050942, 0.4473295324593674, -0.10586165275637023, 0.49635286142826995, 0.03846469563267058, 0.31738843450998905], "lower_weights": [-0.11833207778887832, -0.0547116173456643, 0.04509180435357068, -0.010720611881297725, 0.0345841062012263, 0.009634878204145653, 0.03358745431778042, 0.030475557652028386], "leading_edge_weight": 0.24597378219799507, "TE_thickness": 0.002527862528538575}, "goe182": {"upper_weights": [0.19501687639032486, 0.32149848446964396, 0.32928903104916923, -0.0206462397259614, 0.5756552256406697, -0.11578745592284023, 0.3913614634205338, 0.1406328525929357], "lower_weights": [-0.11450064475287249, 0.066936079649056, -0.06635944789304558, 0.14388719011918677, -0.003416433710294294, 0.13835087023663456, 0.036903298987706994, 0.04513155921179113], "leading_edge_weight": -0.0232634776306654, "TE_thickness": 0.0015858820201067084}, "goe184": {"upper_weights": [0.17106394489591664, 0.2827705258652584, 0.17757673758452394, 0.33568016280567187, 0.1148552402108193, 0.3030021387175995, 0.16216177156888112, 0.22204301957022865], "lower_weights": [-0.10663900489070455, 0.010565187498500037, 0.04706704068055003, 0.056648410399909276, 0.04874632055395331, 0.056982565129707966, 0.025073762933074648, 0.06353695825965078], "leading_edge_weight": 0.06090819335663185, "TE_thickness": 0.0021503429552708515}, "goe190": {"upper_weights": [0.2064626672525257, 0.16310899201723275, 0.4660378328207538, 0.03233229444575296, 0.5634706229634096, 0.0038780142154306325, 0.45476228251939527, 0.30687999552399164], "lower_weights": [-0.15338826971569156, -0.17375183575683828, -0.021231506818474077, -0.11609724133547084, 0.4535627392534589, -0.25529852747054743, 0.3761464263935649, -0.016487658381852448], "leading_edge_weight": 0.3118621147577228, "TE_thickness": 0.0}, "goe195": {"upper_weights": [0.13151324893776023, 0.037940800446728186, 0.4303716237682752, 0.037557780814637516, 0.38026270719222416, 0.13060117160265708, 0.2902500203582217, 0.24110051631031482], "lower_weights": [-0.15468883837533193, -0.1781468670401373, 0.09109246518719209, 0.09139425951072043, -0.07763068524648684, 0.29517473377005893, -0.018669861898093654, 0.11915983784990944], "leading_edge_weight": 0.5098836345686879, "TE_thickness": 0.0020612282867911833}, "goe225": {"upper_weights": [0.25881669402439345, 0.46955023796005185, 0.12007121367353833, 0.6731407908283105, -0.07453779314827269, 0.7600628783865849, 0.15199431188939241, 0.42090383011209015], "lower_weights": [-0.1326977858780898, 0.08893019787193172, -0.1904519122898399, 0.2712209554149349, -0.09194138315524288, 0.3610136443726757, 0.07965757438981748, 0.2281733097815629], "leading_edge_weight": -0.1998413423631326, "TE_thickness": 0.005972841582714457}, "goe226": {"upper_weights": [0.2928184920684532, 0.5504083021421642, 0.17457752614688238, 0.5582370475189053, 0.20466665514312965, 0.519854867938728, 0.29974209486772546, 0.34341494572450093], "lower_weights": [-0.12589169986842855, 0.15664606962303124, -0.2884674391103984, 0.4343192249656862, -0.2801390271659687, 0.46338127670154283, 0.06739074654408043, 0.20605183707152042], "leading_edge_weight": -0.3681049539337349, "TE_thickness": 0.0020316184811654714}, "goe227": {"upper_weights": [0.22222137204113632, 0.5174312141468997, 0.14741616497252985, 0.5982791637912643, 0.20842037095304633, 0.5061273327808574, 0.2935650301964692, 0.40711891475071754], "lower_weights": [-0.15601959104458255, 0.061294333431617665, -0.1656818780819046, 0.10783785865374523, 0.12718194983661937, 0.03015949595633791, 0.3144070229918688, 0.1847135711934589], "leading_edge_weight": -0.15600878177220678, "TE_thickness": 0.003007238840292898}, "goe233": {"upper_weights": [0.2788499458951185, 0.5190891888116886, 0.03723671982986049, 0.604364554048063, 0.10189506799501177, 0.4506859651342596, 0.2717797984438627, 0.31552221237200767], "lower_weights": [-0.07252214458619259, 0.2103206759129858, -0.43695768519067, 0.591054502795844, -0.1130675910519637, 0.391774011804118, 0.21587198131175214, 0.21135054520708493], "leading_edge_weight": -0.5169909262700424, "TE_thickness": 0.003056805804999179}, "goe234": {"upper_weights": [0.29386891309034013, 0.5742807124732143, 0.10558239522885304, 0.5593058893374913, 0.2569757741559558, 0.41084285042913554, 0.37697596373216236, 0.34612468505968713], "lower_weights": [-0.09662425790387286, 0.21801764581665933, -0.559824031065186, 0.6031078171235434, 0.09165684517721523, 0.15396936877364115, 0.4221584116981813, 0.18793980312991826], "leading_edge_weight": -0.4654213238405712, "TE_thickness": 0.007277013922674298}, "goe238": {"upper_weights": [0.18226018875786565, 0.14032258473471595, 0.4490383773870239, 0.11445593757056374, 0.3880172054692211, 0.11352083428320636, 0.15678801679503815, 0.19617868303199384], "lower_weights": [-0.17398793755716435, 0.06061320210183341, -0.12183604589767438, 0.2585035382458207, -0.21176830615396444, 0.15041677023894992, -0.07994787248112724, 0.021912664773400394], "leading_edge_weight": 0.3189090638916835, "TE_thickness": 0.00012230050312761346}, "goe239": {"upper_weights": [0.22840464335734675, 0.3904513301546596, 0.14874739688700225, 0.5244685921786115, -0.03814395674477931, 0.5744878485949959, 0.11440943712272325, 0.3554676610325824], "lower_weights": [-0.10969140282649571, 0.1084301775427538, -0.304668494114729, 0.5086146331724692, -0.4161459074797878, 0.46395151936113727, -0.13337357079186643, 0.18529906959887682], "leading_edge_weight": -0.1798120809532042, "TE_thickness": 0.004299112988175758}, "goe256": {"upper_weights": [0.18862508508720666, 0.244470828234064, 0.39068387267751714, 0.29295924702477955, 0.33206318232107546, 0.40714501269393544, 0.27550084719955953, 0.34559558588882955], "lower_weights": [-0.2529102411347629, -0.14085282276861233, -0.07394035438260538, -0.05358548322753969, -0.1357182927629216, 0.031460593798127406, -0.20226944237428587, -0.08409725739070163], "leading_edge_weight": 0.4085161876688045, "TE_thickness": 0.0024593025839138335}, "goe265": {"upper_weights": [0.23838550807143072, 0.33939059076539013, 0.21153277336920728, 0.36902734747391935, 0.16328776154203065, 0.2969716429987561, 0.18174373259380988, 0.2285241462838733], "lower_weights": [-0.09554425891410384, 0.09672889900352394, 0.16989095664338433, 0.02437787498002527, 0.2263097954038925, 0.032058312692916466, 0.1465769678572984, 0.05035521070585458], "leading_edge_weight": 0.007064229577990843, "TE_thickness": 0.00210844614291808}, "goe274": {"upper_weights": [0.08803311438853705, -0.011357438797478924, 0.48425026080468275, -0.005397151720881021, 0.3823621965639749, 0.15998622044734312, 0.2905013418673449, 0.2710817294259523], "lower_weights": [-0.1941034423477149, -0.19323908222214528, 0.17284898041886604, -0.10368022889170621, 0.13375112457389224, -0.012233109126392697, 0.04202594438589847, 0.07662234958816971], "leading_edge_weight": 0.9708875151887696, "TE_thickness": 0.007990405411971371}, "goe277": {"upper_weights": [0.11360167698997967, 0.04246188750432628, 0.49481376300168295, -0.1306541732823968, 0.547431454050565, -0.047672637387576766, 0.3463330414995772, 0.163560411424749], "lower_weights": [-0.14884490756884278, -0.131990756994846, 0.12227438455692806, -0.08403751672350089, 0.10534392240788662, -0.04426247538293138, 0.051194150059787065, 0.013845479484598694], "leading_edge_weight": 0.5926672774451702, "TE_thickness": 0.0032684837590260815}, "goe282": {"upper_weights": [0.10468112142851008, 0.056098959757365875, 0.39485231227425777, 0.13919538323580788, 0.29808128715698834, 0.20870406058352156, 0.2789922903900747, 0.27495421306799467], "lower_weights": [-0.16045334633168995, -0.3808712226725913, 0.5370382435462248, -0.5447447024381527, 0.5048739042087401, -0.25630344351424356, 0.1714770332564987, -0.00759965736352718], "leading_edge_weight": 0.8034294170785263, "TE_thickness": 0.006380272002835563}, "goe285": {"upper_weights": [0.23526947948332144, 0.3501470308053501, 0.20999158179475652, 0.212101264240758, 0.29518565675685765, 0.1915707366242875, 0.2228512300538513, 0.2520482578453911], "lower_weights": [-0.1449070533248414, 0.08152948465615971, -0.21270706341985032, 0.12894482081012495, -0.20224746539532093, 0.07591321580565784, -0.10790450655159045, -0.04242179404225189], "leading_edge_weight": -0.20886454898287, "TE_thickness": 0.00303530617313577}, "goe286": {"upper_weights": [0.1576929916892464, 0.14271249387571533, 0.36879511902958007, 0.03906964477151104, 0.39360713325160185, 0.03112979788055658, 0.30565902034802317, 0.11577725593913563], "lower_weights": [-0.14590703431551869, -0.06321410861454052, 0.020001664638169946, -0.01923867508675729, 0.0011554709491150307, 0.014239103938222497, -0.01648606131061951, -0.013499014105374825], "leading_edge_weight": 0.3429870265759746, "TE_thickness": 0.0050003900156800635}, "goe298": {"upper_weights": [0.28936923232890727, 0.5173972115300115, -0.09242089732988333, 0.714392337227734, -0.13469980813308194, 0.5126391175166809, 0.08391753373826598, 0.22710017310352354], "lower_weights": [-0.2164473926317514, 0.11072099497098475, -0.19224555253692857, 0.10721764369262561, -0.0928620517393965, 0.031265628857281715, -0.04941876640624795, 0.03984863962406457], "leading_edge_weight": -0.374322265349822, "TE_thickness": 0.005910484902191397}, "goe29b": {"upper_weights": [0.17192219047460275, 0.31997309428703374, 0.12139676758309799, 0.5997462370555177, -0.09463044985112941, 0.503018905618437, 0.10340200771229936, 0.2380312615168827], "lower_weights": [-0.23258956562072597, 0.048329820794932254, 0.05489333739166513, 0.060499014464812886, 0.0642859590501855, 0.050954464794764856, 0.09957858993634218, 0.029644789343719734], "leading_edge_weight": 0.4862280086593623, "TE_thickness": 0.0027436396410270686}, "goe300": {"upper_weights": [0.2452882827278275, 0.3681594181507004, 0.14524292228005642, 0.4920681585899415, 0.05664590647719616, 0.4215868314724282, 0.1889879752789941, 0.2672997204759584], "lower_weights": [-0.09759901824749759, 0.16012812571023277, 0.035611599208293, 0.06565458417277865, 0.08902260467701109, -0.000764820832875903, 0.09202336959654783, 0.011792897320292442], "leading_edge_weight": -0.06439847836729388, "TE_thickness": 0.0017971132355459089}, "goe301": {"upper_weights": [0.2238096354519072, 0.27750600177694856, 0.30408801352373704, 0.3067978209444978, 0.27943282064004854,